{"type":"i","options":{"inputSize":43,"inputRange":43,"hiddenLayers":[20,20],"outputSize":43,"decayRate":0.999,"smoothEps":1e-8,"regc":0.000001,"clipval":5,"maxPredictionLength":100,"dataFormatter":{"values":["i like this job","happy","my favorite class is EW481x","I feel very fulfilled here at USNA","the food at king hall was terrible today","sad","I have wayyy too much homework","I'm feeling overwhelmed by chemistry","I just got crushed by that calculus final exam","I'm really tired of parades","My favorite meal is definitely buffalo chicken sandwiches!","I like YPs","I'm looking forward to spring break","I love playing sports","I really enjoy my lacrosse teammates","I don't get paid enough money","this place is terrible!","I have lots of great friends here","Parades are the most boring event ever","I can't wait to leave this terrible food","classes are going really well this semester","I'm really enjoying my time at the Academy","I always enjoy the class about robotics"],"indexTable":{"1":23,"4":21,"8":22,"i":0," ":1,"l":2,"k":3,"e":4,"t":5,"h":6,"s":7,"j":8,"o":9,"b":10,"a":11,"p":12,"y":13,"m":14,"f":15,"v":16,"r":17,"c":18,"E":19,"W":20,"x":24,"I":25,"u":26,"d":27,"U":28,"S":29,"N":30,"A":31,"n":32,"g":33,"w":34,"'":35,"M":36,"!":37,"Y":38,"P":39,"stop-input":40,"start-output":41,"unrecognized":42},"characterTable":{"0":"i","1":" ","2":"l","3":"k","4":"e","5":"t","6":"h","7":"s","8":"j","9":"o","10":"b","11":"a","12":"p","13":"y","14":"m","15":"f","16":"v","17":"r","18":"c","19":"E","20":"W","21":"4","22":"8","23":"1","24":"x","25":"I","26":"u","27":"d","28":"U","29":"S","30":"N","31":"A","32":"n","33":"g","34":"w","35":"'","36":"M","37":"!","38":"Y","39":"P","40":null,"41":null,"42":null},"characters":["i"," ","l","k","e","t","h","s","j","o","b","a","p","y","m","f","v","r","c","E","W","4","8","1","x","I","u","d","U","S","N","A","n","g","w","'","M","!","Y","P","stop-input","start-output","unrecognized"],"specialIndexes":[40,41,42]}},"input":{"rows":44,"columns":43,"weights":{"0":-0.8412155508995056,"1":-0.022000271826982498,"2":1.4540554285049438,"3":-0.4800780117511749,"4":0.3552660644054413,"5":-0.7787790298461914,"6":0.5714107751846313,"7":0.40268799662590027,"8":-0.12181406468153,"9":-0.266506165266037,"10":-0.5441995859146118,"11":-0.9957178235054016,"12":-1.7223633527755737,"13":1.3731471300125122,"14":-0.7557613849639893,"15":-0.6736778616905212,"16":1.0213390588760376,"17":0.05540556460618973,"18":-0.1789168268442154,"19":0.4436730444431305,"20":-0.18968893587589264,"21":-0.48822012543678284,"22":0.5029641389846802,"23":-0.06102532148361206,"24":-0.13993224501609802,"25":-0.6438018083572388,"26":0.33823758363723755,"27":-0.9300439357757568,"28":-2.0133509635925293,"29":0.055863674730062485,"30":0.2177160680294037,"31":-1.7488977909088135,"32":-1.0096540451049805,"33":-0.6465474367141724,"34":-0.04248863831162453,"35":-0.8191739916801453,"36":0.6102809309959412,"37":-0.12942780554294586,"38":0.017774593085050583,"39":-0.04941845312714577,"40":0.7431449294090271,"41":1.0049935579299927,"42":-0.7767707109451294,"43":1.6561895608901978,"44":-0.9950143694877625,"45":0.7433327436447144,"46":-0.42754873633384705,"47":-0.3796162009239197,"48":-0.41437581181526184,"49":-0.4105406403541565,"50":-0.15672685205936432,"51":0.34074661135673523,"52":0.8503672480583191,"53":1.5942261219024658,"54":-1.3120378255844116,"55":-0.6000226140022278,"56":-0.48912689089775085,"57":-0.017896821722388268,"58":0.03601552173495293,"59":1.5855823755264282,"60":0.9762131571769714,"61":1.2795920372009277,"62":-0.7738077640533447,"63":1.0024192333221436,"64":-2.342200756072998,"65":0.5578108429908752,"66":1.2302368879318237,"67":-1.0573196411132812,"68":1.5372812747955322,"69":0.7682760953903198,"70":0.4462801516056061,"71":0.812119722366333,"72":0.15746761858463287,"73":0.4776231646537781,"74":-2.1192469596862793,"75":-0.28287941217422485,"76":0.15341605246067047,"77":1.1860144138336182,"78":-0.4432345926761627,"79":0.6906867027282715,"80":-2.89902663230896,"81":0.7361305356025696,"82":-0.14401589334011078,"83":0.2674751877784729,"84":-1.9570692777633667,"85":0.09537115693092346,"86":-0.013017033226788044,"87":-0.91704261302948,"88":2.3137266635894775,"89":-0.1028946042060852,"90":-0.5660611987113953,"91":-1.213771939277649,"92":1.3602129220962524,"93":-0.03008117526769638,"94":0.3129008114337921,"95":-0.034882981330156326,"96":1.6434853076934814,"97":0.5542746186256409,"98":-0.5911776423454285,"99":-2.8560285568237305,"100":0.42869555950164795,"101":0.5275641679763794,"102":-1.0467445850372314,"103":-0.07658866792917252,"104":-1.3031507730484009,"105":-0.13185366988182068,"106":-1.3798795938491821,"107":-0.42427465319633484,"108":0.6465276479721069,"109":0.14964623749256134,"110":0.030917350202798843,"111":0.9998133778572083,"112":-0.29220151901245117,"113":-0.16066570580005646,"114":-4.991879940032959,"115":1.7063307762145996,"116":1.9531261920928955,"117":-1.7359224557876587,"118":-1.046072244644165,"119":-0.4119730293750763,"120":0.33053213357925415,"121":-0.21669617295265198,"122":-0.7995496392250061,"123":0.749849796295166,"124":0.24139916896820068,"125":-1.3709831237792969,"126":-0.35573792457580566,"127":0.35403236746788025,"128":-0.609211802482605,"129":-1.8903570175170898,"130":-1.169434905052185,"131":0.5176423788070679,"132":0.07619739323854446,"133":1.068114995956421,"134":0.2799425721168518,"135":0.9218874573707581,"136":-0.4837705194950104,"137":0.5934920310974121,"138":-0.6497970223426819,"139":1.4226640462875366,"140":0.39484116435050964,"141":2.105654239654541,"142":-0.24241158366203308,"143":-2.323866605758667,"144":1.1224905252456665,"145":-2.64705753326416,"146":0.13067221641540527,"147":-1.1309740543365479,"148":1.5667140483856201,"149":-1.0286301374435425,"150":-0.7022454142570496,"151":-0.8564971685409546,"152":-0.951079785823822,"153":0.532368004322052,"154":2.388395071029663,"155":-1.8504589796066284,"156":2.65840482711792,"157":-0.365259051322937,"158":-0.6569169163703918,"159":-1.204121470451355,"160":-0.7007135152816772,"161":1.0745199918746948,"162":0.8437178134918213,"163":-0.7962609529495239,"164":0.8623663187026978,"165":0.19823399186134338,"166":-0.7877407073974609,"167":-0.20599986612796783,"168":0.15985602140426636,"169":-0.1741526871919632,"170":-1.8503378629684448,"171":1.0440829992294312,"172":-0.827072024345398,"173":-1.1490715742111206,"174":-1.0460363626480103,"175":-0.6540067791938782,"176":-3.7558610439300537,"177":-4.921598434448242,"178":-1.5900007486343384,"179":-1.9382541179656982,"180":-2.039152145385742,"181":-3.8948051929473877,"182":0.3339953124523163,"183":1.8262956142425537,"184":0.2199879139661789,"185":2.149822235107422,"186":4.874443054199219,"187":-0.7346343398094177,"188":-0.5463262796401978,"189":1.7200267314910889,"190":-3.05583119392395,"191":0.9854385852813721,"192":-0.26065102219581604,"193":7.448619365692139,"194":-0.5194449424743652,"195":1.0390794277191162,"196":5.18680477142334,"197":0.956908643245697,"198":3.020440101623535,"199":1.7412389516830444,"200":2.240159511566162,"201":0.03917020931839943,"202":3.1832034587860107,"203":5.806521415710449,"204":-0.5834996104240417,"205":-0.08181486278772354,"206":0.5060672760009766,"207":-0.2989617586135864,"208":0.05649318918585777,"209":-0.9692422151565552,"210":0.8799495100975037,"211":-6.006824016571045,"212":-2.060472011566162,"213":-1.8116143941879272,"214":1.3285291194915771,"215":1.322914719581604,"216":-0.41319531202316284,"217":0.4667382836341858,"218":-0.08751015365123749,"219":-1.0263488292694092,"220":-0.16697736084461212,"221":-1.0197062492370605,"222":1.2787470817565918,"223":0.595837414264679,"224":1.5221270322799683,"225":1.8991793394088745,"226":0.14236830174922943,"227":0.2889097332954407,"228":-1.4165512323379517,"229":0.24190273880958557,"230":-0.1394290179014206,"231":0.2490987628698349,"232":2.2467386722564697,"233":-0.8829504251480103,"234":-1.0430676937103271,"235":0.9044806957244873,"236":0.5281153321266174,"237":0.04334921017289162,"238":-0.2972327172756195,"239":0.6996611952781677,"240":1.429181694984436,"241":-0.10343706607818604,"242":0.22333170473575592,"243":0.6226896643638611,"244":-0.0858653262257576,"245":0.9657065272331238,"246":-1.4547491073608398,"247":-0.7207186818122864,"248":-0.002075860043987632,"249":1.062069058418274,"250":-0.030889129266142845,"251":1.1421469449996948,"252":-0.39858460426330566,"253":0.21760521829128265,"254":-0.45761215686798096,"255":1.0785030126571655,"256":-0.6483128666877747,"257":0.7158616781234741,"258":-0.3866296112537384,"259":-2.4722659587860107,"260":-0.27307555079460144,"261":0.7091913819313049,"262":0.8496134877204895,"263":0.7374812960624695,"264":0.9889083504676819,"265":-2.03926420211792,"266":1.2268158197402954,"267":-2.827943801879883,"268":-0.051853835582733154,"269":-0.5408966541290283,"270":2.104499101638794,"271":2.050914764404297,"272":-1.7452776432037354,"273":0.961523711681366,"274":0.23844966292381287,"275":-1.9057307243347168,"276":2.3344404697418213,"277":1.267952561378479,"278":-0.8924502730369568,"279":-2.6366050243377686,"280":-0.7122164368629456,"281":0.03300023078918457,"282":-1.9614653587341309,"283":-2.4290387630462646,"284":-0.6010990738868713,"285":1.4060126543045044,"286":0.16970619559288025,"287":-0.6781503558158875,"288":-0.4447859823703766,"289":1.0980273485183716,"290":1.4153794050216675,"291":-0.7877658605575562,"292":-1.9295119047164917,"293":0.8077717423439026,"294":-1.5779495239257812,"295":-0.10526490956544876,"296":-1.2284321784973145,"297":0.07318838685750961,"298":-0.7373631596565247,"299":-0.05636060982942581,"300":-0.1704847812652588,"301":-0.5901381969451904,"302":-2.093848705291748,"303":0.47159138321876526,"304":0.46474355459213257,"305":0.9868709444999695,"306":-0.5558348298072815,"307":-0.526628851890564,"308":-0.4595949947834015,"309":0.3444978594779968,"310":-2.0012922286987305,"311":0.3233533203601837,"312":0.46627604961395264,"313":0.7270339131355286,"314":0.38424789905548096,"315":-0.6240633726119995,"316":0.4771529734134674,"317":-0.9580240845680237,"318":0.28087449073791504,"319":0.2687128186225891,"320":0.5800819396972656,"321":-0.3124123215675354,"322":-0.7743024230003357,"323":-0.036080434918403625,"324":0.02268051542341709,"325":0.23421844840049744,"326":-0.3907514214515686,"327":-0.22442959249019623,"328":1.9306223392486572,"329":0.23692850768566132,"330":0.006489435210824013,"331":-0.05645069107413292,"332":0.7232492566108704,"333":1.0975532531738281,"334":-0.07939498126506805,"335":-0.584193766117096,"336":0.44377148151397705,"337":-0.3643418848514557,"338":0.2594834864139557,"339":0.09515319019556046,"340":-0.8618587851524353,"341":0.20288246870040894,"342":-0.1281638741493225,"343":0.6418792605400085,"344":0.07302981615066528,"345":-0.8949642777442932,"346":2.025303840637207,"347":-1.7629268169403076,"348":-0.9702993035316467,"349":-0.24396862089633942,"350":-0.40900346636772156,"351":-0.6764451861381531,"352":0.3181686997413635,"353":-1.8080099821090698,"354":0.3359410762786865,"355":1.298905849456787,"356":0.7117122411727905,"357":-0.2327922284603119,"358":0.843511164188385,"359":1.487229824066162,"360":0.9171797633171082,"361":-0.7107889652252197,"362":0.7444006204605103,"363":0.5947470664978027,"364":-0.3904387652873993,"365":0.48108866810798645,"366":0.12069808691740036,"367":2.420213460922241,"368":-1.4762524366378784,"369":-1.522180199623108,"370":1.4476735591888428,"371":1.1425085067749023,"372":-0.4827127456665039,"373":0.5293073654174805,"374":1.2639051675796509,"375":-1.1757639646530151,"376":-0.7268231511116028,"377":1.893925428390503,"378":0.15322181582450867,"379":-0.24998214840888977,"380":-0.3457227051258087,"381":-0.848065972328186,"382":-0.012453865259885788,"383":-0.709464967250824,"384":-0.8316846489906311,"385":-0.008606224320828915,"386":1.4744197130203247,"387":3.4896461963653564,"388":4.178508758544922,"389":-1.7679286003112793,"390":-0.20833559334278107,"391":0.5128487944602966,"392":0.5755292773246765,"393":-2.726706027984619,"394":3.7486572265625,"395":0.7282642722129822,"396":5.488445281982422,"397":1.709085464477539,"398":-4.1804680824279785,"399":0.382799357175827,"400":-3.0067384243011475,"401":0.7974755167961121,"402":-1.611670732498169,"403":4.391161918640137,"404":-0.09337381273508072,"405":0.6076720356941223,"406":-1.9968616962432861,"407":0.13387545943260193,"408":-0.37254202365875244,"409":-0.6952263712882996,"410":2.1797573566436768,"411":2.4920547008514404,"412":0.9124112725257874,"413":0.5863009095191956,"414":1.6322790384292603,"415":1.907704472541809,"416":-0.6137536764144897,"417":1.902066946029663,"418":-4.097501277923584,"419":0.3266468644142151,"420":-1.2517272233963013,"421":5.624916076660156,"422":1.2182668447494507,"423":3.6658992767333984,"424":0.3878857493400574,"425":-1.2019050121307373,"426":-0.357011079788208,"427":3.674816370010376,"428":1.6737555265426636,"429":3.5894806385040283,"430":0.25127744674682617,"431":-1.102773666381836,"432":0.2295657843351364,"433":0.31296634674072266,"434":-0.3458500802516937,"435":0.25988128781318665,"436":-0.17502503097057343,"437":0.18212848901748657,"438":-0.3473094403743744,"439":-0.2467004954814911,"440":0.2907709777355194,"441":0.6529711484909058,"442":-0.23979130387306213,"443":-0.9221765995025635,"444":-1.1321042776107788,"445":0.8999433517456055,"446":-1.2471163272857666,"447":-0.7208290696144104,"448":0.31286248564720154,"449":0.05308021977543831,"450":-0.2886785566806793,"451":-0.1712564080953598,"452":-0.4196295440196991,"453":-0.12136626243591309,"454":-0.2696690857410431,"455":-0.5694452524185181,"456":-0.28128373622894287,"457":0.03952557221055031,"458":-0.16836930811405182,"459":-0.6797336339950562,"460":0.39036568999290466,"461":-0.6250527501106262,"462":-0.004026420880109072,"463":-0.3679395616054535,"464":-0.16687272489070892,"465":0.044580623507499695,"466":0.6008433699607849,"467":0.5225597620010376,"468":-1.314085602760315,"469":0.11329561471939087,"470":-0.07582133263349533,"471":0.08960852771997452,"472":0.5608431696891785,"473":-1.5668717622756958,"474":-0.30641618371009827,"475":1.240217685699463,"476":0.022920096293091774,"477":-0.37894192337989807,"478":0.963858425617218,"479":1.072326421737671,"480":-0.9443830251693726,"481":0.04532628878951073,"482":-1.3309624195098877,"483":-0.4300585985183716,"484":1.0154227018356323,"485":0.19678078591823578,"486":1.1922194957733154,"487":-0.8733277916908264,"488":1.0184931755065918,"489":1.1870253086090088,"490":-1.7151652574539185,"491":-0.4967765212059021,"492":0.10885421186685562,"493":0.3538702726364136,"494":1.232193946838379,"495":0.2618337869644165,"496":-0.673408031463623,"497":-3.1721532344818115,"498":-1.8843729496002197,"499":-0.4858472943305969,"500":-0.8611959218978882,"501":-2.377885580062866,"502":0.5746052861213684,"503":-0.16575030982494354,"504":-0.6618688106536865,"505":0.12190164625644684,"506":2.29970121383667,"507":-1.0202996730804443,"508":-0.11724043637514114,"509":-0.5173630118370056,"510":-0.24809107184410095,"511":-0.6721628308296204,"512":0.8678562045097351,"513":-0.8626993298530579,"514":0.9654452204704285,"515":-0.18654859066009521,"516":-0.09312864392995834,"517":1.7742723226547241,"518":-1.072324514389038,"519":0.07761140912771225,"520":-0.24555809795856476,"521":0.7297986149787903,"522":0.04676331952214241,"523":-0.018161412328481674,"524":0.1644129753112793,"525":0.1167520135641098,"526":-0.518436074256897,"527":-0.3963201344013214,"528":-0.4576740264892578,"529":0.7553037405014038,"530":-0.31638896465301514,"531":-0.7195451259613037,"532":0.6418060660362244,"533":-0.5313194990158081,"534":0.05601814389228821,"535":0.02674206532537937,"536":0.1723320186138153,"537":0.6375324130058289,"538":-0.3604593276977539,"539":0.24691085517406464,"540":0.7868841290473938,"541":-0.8569895029067993,"542":0.18404549360275269,"543":-0.643879234790802,"544":1.2511401176452637,"545":-0.3129555583000183,"546":-0.018301866948604584,"547":0.47390034794807434,"548":-0.2895013391971588,"549":-0.630507230758667,"550":-0.2582685351371765,"551":-0.7558390498161316,"552":-0.12488871812820435,"553":-0.39008423686027527,"554":-0.7270202040672302,"555":1.750163197517395,"556":0.2179919332265854,"557":0.8907501101493835,"558":-0.411637544631958,"559":0.6432368159294128,"560":-1.4199892282485962,"561":-0.881080150604248,"562":3.3899424076080322,"563":3.165060043334961,"564":1.7810391187667847,"565":-0.5120778679847717,"566":0.7558531165122986,"567":2.1364710330963135,"568":0.44101211428642273,"569":-0.6627553701400757,"570":0.11898797005414963,"571":0.6926631927490234,"572":-1.1963542699813843,"573":-1.2261545658111572,"574":-0.3542005717754364,"575":-0.9880006909370422,"576":0.9723696708679199,"577":-0.6046774983406067,"578":-0.07978937774896622,"579":0.5746840834617615,"580":-2.4492335319519043,"581":-2.620582103729248,"582":-0.41937559843063354,"583":-0.4951326847076416,"584":-0.8058992028236389,"585":-1.0974864959716797,"586":0.5743218660354614,"587":2.27980899810791,"588":-0.8309614062309265,"589":-0.9738799333572388,"590":-1.737881064414978,"591":3.4693143367767334,"592":-1.3278484344482422,"593":0.009943847544491291,"594":2.554635524749756,"595":0.31448957324028015,"596":1.8472858667373657,"597":-3.0474767684936523,"598":1.6515040397644043,"599":-0.05625830218195915,"600":0.05073340982198715,"601":0.05114473029971123,"602":0.5335568189620972,"603":-2.0979597568511963,"604":3.0104758739471436,"605":0.2668868899345398,"606":-0.4187410771846771,"607":-0.4939187467098236,"608":-0.0866980329155922,"609":-0.34309178590774536,"610":0.4680142104625702,"611":-1.0824567079544067,"612":0.33818358182907104,"613":0.5690873265266418,"614":0.23007021844387054,"615":-0.02460147626698017,"616":0.5828213095664978,"617":0.9648142457008362,"618":-0.27787163853645325,"619":0.007655308116227388,"620":0.4345639646053314,"621":0.1107417568564415,"622":0.5176882147789001,"623":-0.7287383675575256,"624":1.152598261833191,"625":-0.28961578011512756,"626":-1.8222607374191284,"627":0.11822449415922165,"628":0.21191377937793732,"629":0.22051237523555756,"630":-1.025093674659729,"631":0.9678158164024353,"632":0.016763562336564064,"633":-0.400651752948761,"634":-0.10787031799554825,"635":1.5052056312561035,"636":-0.5191235542297363,"637":0.24343112111091614,"638":-0.1407611072063446,"639":-0.35819193720817566,"640":0.5573965907096863,"641":-1.2500463724136353,"642":-0.40084725618362427,"643":-1.581382155418396,"644":-0.38203784823417664,"645":0.5799485445022583,"646":1.2736910581588745,"647":-0.4132055342197418,"648":-0.5735857486724854,"649":0.03490058705210686,"650":0.33710646629333496,"651":0.3553583025932312,"652":0.5043937563896179,"653":0.4097234308719635,"654":0.5992700457572937,"655":-0.7460403442382812,"656":-2.2919671535491943,"657":-0.29439669847488403,"658":-1.1602869033813477,"659":0.907547652721405,"660":-1.5524380207061768,"661":0.052941661328077316,"662":-0.20014944672584534,"663":-1.3348431587219238,"664":-0.616439938545227,"665":1.1388435363769531,"666":1.7430419921875,"667":-0.22512075304985046,"668":-0.8387575149536133,"669":1.4809342622756958,"670":0.2641119062900543,"671":-1.4261243343353271,"672":0.159230038523674,"673":-0.00013033147843088955,"674":0.18680255115032196,"675":-1.0833661556243896,"676":1.9928311109542847,"677":0.8111699223518372,"678":0.7120304107666016,"679":1.6524244546890259,"680":0.3635292947292328,"681":0.7236707806587219,"682":1.357509970664978,"683":-0.7400997281074524,"684":2.076833486557007,"685":0.9297880530357361,"686":0.5897630453109741,"687":1.6249533891677856,"688":0.6188791394233704,"689":-0.2091626226902008,"690":-2.449885129928589,"691":0.11307046562433243,"692":0.37935900688171387,"693":-0.9344685673713684,"694":-2.0613455772399902,"695":0.30518704652786255,"696":0.1676931083202362,"697":-0.28125450015068054,"698":-0.46596354246139526,"699":-0.18055416643619537,"700":-0.8280806541442871,"701":0.35471686720848083,"702":1.9835960865020752,"703":0.17592261731624603,"704":-1.525715708732605,"705":0.8309135437011719,"706":-2.4670674800872803,"707":0.5919123888015747,"708":-0.052410226315259933,"709":-0.5768694281578064,"710":-0.9290210008621216,"711":-1.1933072805404663,"712":3.668172597885132,"713":2.546041250228882,"714":0.5593292117118835,"715":3.9642460346221924,"716":3.7662267684936523,"717":-0.7598087787628174,"718":-0.7548657059669495,"719":0.5560390949249268,"720":0.7388924956321716,"721":-3.345961809158325,"722":0.7987926006317139,"723":-0.8364821076393127,"724":0.6006964445114136,"725":-1.4571261405944824,"726":-1.2675920724868774,"727":0.2599502503871918,"728":-0.2148759514093399,"729":0.28544846177101135,"730":6.498467445373535,"731":-0.2355753779411316,"732":0.40352505445480347,"733":-0.8399621248245239,"734":-3.230558156967163,"735":-1.8974360227584839,"736":-0.17035990953445435,"737":-0.35487717390060425,"738":0.7327595949172974,"739":-0.9651288390159607,"740":0.29673442244529724,"741":-1.3159071207046509,"742":-2.2978577613830566,"743":-0.8062080144882202,"744":-2.4796597957611084,"745":-0.3025812804698944,"746":-1.1198023557662964,"747":-1.672264575958252,"748":0.4418906569480896,"749":0.010610437020659447,"750":0.38158944249153137,"751":0.7979756593704224,"752":3.4568285942077637,"753":0.10659853368997574,"754":1.2639204263687134,"755":0.8034578561782837,"756":1.1334452629089355,"757":0.6820084452629089,"758":1.583608865737915,"759":0.4138302803039551,"760":-1.2282392978668213,"761":2.6797595024108887,"762":1.3694722652435303,"763":-1.66573965549469,"764":2.3003625869750977,"765":1.1801186800003052,"766":-1.6420570611953735,"767":0.8396787047386169,"768":0.6860877871513367,"769":-0.2946583926677704,"770":1.066729187965393,"771":0.5633739829063416,"772":0.34021803736686707,"773":6.1146416664123535,"774":-0.1382521390914917,"775":-0.058282509446144104,"776":-0.12421919405460358,"777":0.9695751667022705,"778":0.4383770823478699,"779":-1.1871962547302246,"780":-1.5826514959335327,"781":0.8322946429252625,"782":-0.9509409070014954,"783":1.8934887647628784,"784":1.7291737794876099,"785":0.12730973958969116,"786":-0.6808938980102539,"787":-1.0642061233520508,"788":0.7242395877838135,"789":-0.050105027854442596,"790":0.29566919803619385,"791":1.741550326347351,"792":0.23793967068195343,"793":-0.27120378613471985,"794":-0.531013011932373,"795":-0.1572253406047821,"796":0.3193070590496063,"797":0.05352148413658142,"798":1.6245641708374023,"799":1.6976808309555054,"800":-0.0972779244184494,"801":-0.8385006785392761,"802":-1.1288179159164429,"803":0.17888054251670837,"804":0.22710320353507996,"805":-0.9717457890510559,"806":-0.9182612299919128,"807":-0.30257928371429443,"808":0.07797469198703766,"809":-0.12839967012405396,"810":0.9986755847930908,"811":0.6133571267127991,"812":0.5022184252738953,"813":-1.3727874755859375,"814":0.049217283725738525,"815":-0.9612640142440796,"816":-1.3485654592514038,"817":-1.57217276096344,"818":-2.0877976417541504,"819":2.7332687377929688,"820":-1.4049441814422607,"821":0.358747273683548,"822":-1.8690065145492554,"823":1.1833831071853638,"824":-0.14901889860630035,"825":-1.1618382930755615,"826":-0.24497056007385254,"827":1.2278192043304443,"828":0.2898096740245819,"829":-0.24482625722885132,"830":-0.8965873718261719,"831":0.14639827609062195,"832":0.14444811642169952,"833":-0.7370821237564087,"834":-0.09165875613689423,"835":-0.5714786648750305,"836":-0.032537076622247696,"837":-1.8012839555740356,"838":-0.2117096185684204,"839":1.0670753717422485,"840":0.1485327184200287,"841":-1.0583175420761108,"842":2.9974801540374756,"843":1.3485342264175415,"844":1.3377820253372192,"845":-4.64369010925293,"846":1.2522293329238892,"847":-0.9322851300239563,"848":-0.27183789014816284,"849":-0.8149250745773315,"850":-0.5837018489837646,"851":0.8455953598022461,"852":-1.0095797777175903,"853":-1.0566768646240234,"854":-1.1252448558807373,"855":3.0346670150756836,"856":-2.5348527431488037,"857":-0.4015961289405823,"858":-0.626795768737793,"859":-0.19375543296337128,"860":8.006830215454102,"861":-4.947747707366943,"862":-5.728433132171631,"863":1.514011263847351,"864":3.058112382888794,"865":-2.4006550312042236,"866":-3.987602710723877,"867":6.826202869415283,"868":1.322385311126709,"869":1.777640700340271,"870":-4.03747034072876,"871":-4.5658063888549805,"872":-0.11271632462739944,"873":0.9022460579872131,"874":0.6400008201599121,"875":-4.1105546951293945,"876":-2.75553822517395,"877":2.0891010761260986,"878":-2.28011417388916,"879":-4.193136692047119,"880":6.151513576507568,"881":-0.1440439224243164,"882":-1.056702733039856,"883":-1.9419258832931519,"884":3.1263484954833984,"885":-10.012165069580078,"886":-1.8710495233535767,"887":1.0899370908737183,"888":7.697790622711182,"889":-0.8335928320884705,"890":-1.3405297994613647,"891":-0.4974311590194702,"892":1.594882607460022,"893":0.12948663532733917,"894":4.419985771179199,"895":0.558906078338623,"896":6.427309513092041,"897":7.047030448913574,"898":-3.0039098262786865,"899":0.9627826809883118,"900":-0.04486732557415962,"901":6.726460933685303,"902":2.667757987976074,"903":3.6002237796783447,"904":5.386806011199951,"905":-4.8574604988098145,"906":2.869377374649048,"907":-0.05012594535946846,"908":1.7066287994384766,"909":-1.0915820598602295,"910":5.093526363372803,"911":0.9074053168296814,"912":2.4588983058929443,"913":-1.633867859840393,"914":-2.7803759574890137,"915":-1.4856512546539307,"916":2.4561378955841064,"917":1.9060678482055664,"918":-4.121788501739502,"919":1.4978132247924805,"920":3.0895626544952393,"921":-1.7859382629394531,"922":-9.966707229614258,"923":7.624718189239502,"924":-2.279508113861084,"925":-3.9883229732513428,"926":-0.18479791283607483,"927":6.8817548751831055,"928":-0.04373582452535629,"929":-1.0045920610427856,"930":-1.2211939096450806,"931":5.151968955993652,"932":-1.438557744026184,"933":1.4148634672164917,"934":-6.578304290771484,"935":1.6030704975128174,"936":-6.850014686584473,"937":2.1675117015838623,"938":2.0191352367401123,"939":9.469840049743652,"940":3.3535211086273193,"941":-2.8439128398895264,"942":-0.9243762493133545,"943":3.5626273155212402,"944":3.4868645668029785,"945":-3.087998390197754,"946":-4.091522216796875,"947":-1.0686372518539429,"948":1.6717392206192017,"949":2.1869115829467773,"950":3.28294038772583,"951":1.082183837890625,"952":3.6642372608184814,"953":-2.724193572998047,"954":2.5540895462036133,"955":-5.315788269042969,"956":-0.8095030188560486,"957":3.815835475921631,"958":2.472691774368286,"959":2.745307207107544,"960":-2.404798746109009,"961":4.714288711547852,"962":-2.215773820877075,"963":-4.326155185699463,"964":-3.123619318008423,"965":4.356157302856445,"966":-4.091972827911377,"967":-4.248250961303711,"968":-2.4135594367980957,"969":-1.2589927911758423,"970":-1.0786259174346924,"971":-3.9269587993621826,"972":-2.0215859413146973,"973":5.303603649139404,"974":-0.7460557818412781,"975":-3.0667686462402344,"976":-2.0631918907165527,"977":-2.653201103210449,"978":2.5707530975341797,"979":-0.9309735298156738,"980":-4.8873772621154785,"981":1.8738287687301636,"982":-2.048671007156372,"983":2.391019582748413,"984":-1.8357783555984497,"985":1.351172685623169,"986":-3.1041817665100098,"987":1.6452217102050781,"988":2.576218843460083,"989":-10.225235939025879,"990":0.5485219955444336,"991":2.8098952770233154,"992":1.6472187042236328,"993":2.9719796180725098,"994":1.3527774810791016,"995":7.266330718994141,"996":-7.535992622375488,"997":-0.27840477228164673,"998":-0.7435879111289978,"999":-3.442178249359131,"1000":5.995654106140137,"1001":0.8445796966552734,"1002":0.9967057108879089,"1003":-4.148426532745361,"1004":6.864169120788574,"1005":6.694547176361084,"1006":-8.35999584197998,"1007":-4.594266891479492,"1008":0.08570573478937149,"1009":-6.699615478515625,"1010":3.5941483974456787,"1011":-1.256608247756958,"1012":-4.128669738769531,"1013":-1.3310962915420532,"1014":-5.862785816192627,"1015":-2.999912738800049,"1016":0.46937042474746704,"1017":-5.572263240814209,"1018":-4.027494430541992,"1019":-4.1358208656311035,"1020":3.0814197063446045,"1021":1.2107832431793213,"1022":1.4552096128463745,"1023":-8.18494987487793,"1024":2.310436725616455,"1025":-1.7911262512207031,"1026":2.5727365016937256,"1027":0.7173898816108704,"1028":-2.8392138481140137,"1029":-4.432815074920654,"1030":3.1793413162231445,"1031":-8.948710441589355,"1032":-2.4949257373809814,"1033":0.09844916313886642,"1034":1.2093837261199951,"1035":-5.2771501541137695,"1036":-3.634229898452759,"1037":-9.384480476379395,"1038":0.10603512078523636,"1039":3.6644833087921143,"1040":-11.028972625732422,"1041":-0.1525842398405075,"1042":3.5221152305603027,"1043":-2.726259469985962,"1044":-3.7676472663879395,"1045":-4.428244113922119,"1046":1.1904233694076538,"1047":-0.8058466911315918,"1048":1.3179033994674683,"1049":-0.357673704624176,"1050":0.5915228128433228,"1051":-0.46850284934043884,"1052":-0.7308691740036011,"1053":3.0334231853485107,"1054":0.9987357258796692,"1055":7.5504374504089355,"1056":-1.5144683122634888,"1057":2.795381546020508,"1058":1.3409614562988281,"1059":-0.5045661330223083,"1060":-5.700591564178467,"1061":4.335318088531494,"1062":1.6807446479797363,"1063":2.327028751373291,"1064":-9.820188522338867,"1065":2.4176254272460938,"1066":0.9719182252883911,"1067":-9.745401382446289,"1068":3.6382038593292236,"1069":1.5905414819717407,"1070":8.214391708374023,"1071":-9.766108512878418,"1072":-0.15290173888206482,"1073":1.293886423110962,"1074":-5.457765102386475,"1075":-0.48198890686035156,"1076":-9.166897773742676,"1077":-5.9730048179626465,"1078":3.180856227874756,"1079":1.0553058385849,"1080":-2.089717149734497,"1081":-4.516850471496582,"1082":6.903415203094482,"1083":-0.8280052542686462,"1084":4.765309810638428,"1085":-1.4780951738357544,"1086":-1.7881731986999512,"1087":2.758265733718872,"1088":-1.1859842538833618,"1089":-3.1538026332855225,"1090":-4.9615960121154785,"1091":-6.570486545562744,"1092":2.870561122894287,"1093":-0.273878276348114,"1094":-4.981123447418213,"1095":1.7766536474227905,"1096":0.2155270129442215,"1097":-3.9649300575256348,"1098":-5.417237758636475,"1099":6.138490676879883,"1100":6.408461570739746,"1101":-2.816889762878418,"1102":4.168087482452393,"1103":2.185073137283325,"1104":-4.556351661682129,"1105":-4.384812831878662,"1106":0.3092813193798065,"1107":0.24838197231292725,"1108":-5.177363395690918,"1109":5.777970790863037,"1110":3.162013530731201,"1111":5.507668495178223,"1112":-0.6319690942764282,"1113":-1.1512751579284668,"1114":-1.2679593563079834,"1115":-2.90397047996521,"1116":-6.733591556549072,"1117":1.0778311491012573,"1118":-1.3127005100250244,"1119":-1.7547881603240967,"1120":2.9315996170043945,"1121":0.6179265379905701,"1122":2.154465436935425,"1123":0.3435305655002594,"1124":1.0374876260757446,"1125":0.21183036267757416,"1126":0.07372733950614929,"1127":-0.7076497077941895,"1128":0.3716783821582794,"1129":1.4733012914657593,"1130":-0.09554676711559296,"1131":-0.035523079335689545,"1132":-0.6445465683937073,"1133":1.4527291059494019,"1134":-1.020479440689087,"1135":-0.2173985093832016,"1136":-2.349959373474121,"1137":0.9339443445205688,"1138":-1.3102998733520508,"1139":-0.4500685930252075,"1140":-0.8462236523628235,"1141":-0.035203106701374054,"1142":-0.3104167580604553,"1143":0.38131967186927795,"1144":-0.39416560530662537,"1145":0.8329696655273438,"1146":-1.3824577331542969,"1147":0.06640300899744034,"1148":-1.618762493133545,"1149":-0.6952878832817078,"1150":2.820279598236084,"1151":-1.5456990003585815,"1152":1.1771589517593384,"1153":1.78130304813385,"1154":-0.11147787421941757,"1155":2.46923565864563,"1156":0.5151048898696899,"1157":-2.1247847080230713,"1158":-0.2942134737968445,"1159":1.8014427423477173,"1160":-0.07966027408838272,"1161":-0.9800181984901428,"1162":0.6862807273864746,"1163":0.2826773524284363,"1164":0.01276262104511261,"1165":2.6767947673797607,"1166":1.5263419151306152,"1167":1.5879260301589966,"1168":-0.28787320852279663,"1169":-0.8809260129928589,"1170":-0.15210190415382385,"1171":-0.5100407004356384,"1172":-0.11463743448257446,"1173":-1.5559476613998413,"1174":0.23512621223926544,"1175":-7.082687854766846,"1176":0.7191869020462036,"1177":-2.620748519897461,"1178":-1.6568607091903687,"1179":0.4899161458015442,"1180":0.5900968909263611,"1181":-0.3936954438686371,"1182":0.9900622963905334,"1183":-0.1912287473678589,"1184":-0.17901885509490967,"1185":-1.6114795207977295,"1186":-0.7547035813331604,"1187":-0.05421622470021248,"1188":-1.0403923988342285,"1189":-2.6112115383148193,"1190":-0.3806723356246948,"1191":-1.208003282546997,"1192":-0.9510118365287781,"1193":2.166354179382324,"1194":0.35496166348457336,"1195":-0.7747489809989929,"1196":-2.804807424545288,"1197":-0.10300728678703308,"1198":1.557456612586975,"1199":-1.9226436614990234,"1200":2.643458366394043,"1201":-0.46461427211761475,"1202":0.13904283940792084,"1203":-1.6537526845932007,"1204":-0.64363694190979,"1205":-1.758824110031128,"1206":2.4551830291748047,"1207":-1.4258053302764893,"1208":-3.552100419998169,"1209":0.2275025099515915,"1210":0.8846687078475952,"1211":-1.4528099298477173,"1212":-0.9156495928764343,"1213":-2.5195369720458984,"1214":0.3161279559135437,"1215":2.882195472717285,"1216":0.5976958274841309,"1217":-0.284810870885849,"1218":0.31283584237098694,"1219":0.8281561732292175,"1220":0.31327399611473083,"1221":-0.9496753215789795,"1222":2.223785877227783,"1223":1.1823093891143799,"1224":-0.92005455493927,"1225":0.8578376173973083,"1226":0.3019380569458008,"1227":1.9117798805236816,"1228":-1.4179418087005615,"1229":-0.32786399126052856,"1230":0.05296866223216057,"1231":0.19825702905654907,"1232":-1.0162708759307861,"1233":0.26931384205818176,"1234":1.0724009275436401,"1235":-0.7984498143196106,"1236":-1.0268545150756836,"1237":1.4945509433746338,"1238":-0.4363800287246704,"1239":0.4876343011856079,"1240":-1.2815642356872559,"1241":-1.879613995552063,"1242":-0.04753562808036804,"1243":-0.9517734050750732,"1244":-2.03808856010437,"1245":-1.1303244829177856,"1246":0.6805090308189392,"1247":-1.8047115802764893,"1248":0.3623636066913605,"1249":-1.2785847187042236,"1250":-5.706953048706055,"1251":-3.774360179901123,"1252":-9.567702293395996,"1253":-2.1578211784362793,"1254":-0.2884849011898041,"1255":-8.374258041381836,"1256":-1.8976287841796875,"1257":0.47509169578552246,"1258":-7.163637161254883,"1259":-4.456947326660156,"1260":-1.4881916046142578,"1261":2.211212635040283,"1262":-7.981754779815674,"1263":1.1263154745101929,"1264":0.6460711359977722,"1265":4.210412979125977,"1266":0.6822534203529358,"1267":-0.5160114169120789,"1268":8.075878143310547,"1269":5.1027727127075195,"1270":-3.3209893703460693,"1271":0.44160810112953186,"1272":0.9137570261955261,"1273":1.5448458194732666,"1274":-3.9824633598327637,"1275":-4.0810770988464355,"1276":7.590377330780029,"1277":2.474581718444824,"1278":12.161846160888672,"1279":-7.441412925720215,"1280":2.8901593685150146,"1281":2.036693572998047,"1282":-6.822230815887451,"1283":-0.92014479637146,"1284":0.04640702158212662,"1285":7.588753700256348,"1286":-6.8720526695251465,"1287":2.6860766410827637,"1288":1.8789541721343994,"1289":-1.1889772415161133,"1290":0.8475028276443481,"1291":4.003855228424072,"1292":4.2948198318481445,"1293":-10.178035736083984,"1294":-3.4116530418395996,"1295":-5.886133193969727,"1296":-2.801877975463867,"1297":3.6154656410217285,"1298":-5.238104820251465,"1299":1.5338866710662842,"1300":3.427276134490967,"1301":-7.675534248352051,"1302":-5.82528829574585,"1303":-2.24584698677063,"1304":-2.0861806869506836,"1305":-9.097412109375,"1306":-1.9201387166976929,"1307":4.000068187713623,"1308":6.655313491821289,"1309":0.3159896731376648,"1310":1.7945729494094849,"1311":5.594266891479492,"1312":2.3359086513519287,"1313":6.6669745445251465,"1314":0.9586099982261658,"1315":0.9317894577980042,"1316":4.532397747039795,"1317":-3.761284828186035,"1318":-4.994385719299316,"1319":3.8094191551208496,"1320":6.418428421020508,"1321":-1.5561003684997559,"1322":-4.744228839874268,"1323":4.490911483764648,"1324":1.0201131105422974,"1325":-5.434718608856201,"1326":3.044651508331299,"1327":-2.348906993865967,"1328":4.6954522132873535,"1329":-0.6626746654510498,"1330":5.82029390335083,"1331":-0.925809919834137,"1332":0.6201807856559753,"1333":-1.6506997346878052,"1334":6.395166397094727,"1335":-0.4004281759262085,"1336":-0.06888974457979202,"1337":4.116782188415527,"1338":-6.39059591293335,"1339":4.367815017700195,"1340":0.9731816649436951,"1341":-3.348268985748291,"1342":-5.572587966918945,"1343":-8.070000648498535,"1344":-6.268301486968994,"1345":-7.410031795501709,"1346":7.798537254333496,"1347":6.942392826080322,"1348":-3.0723876953125,"1349":3.5130996704101562,"1350":-3.274582862854004,"1351":7.2246928215026855,"1352":6.68087911605835,"1353":0.7272323966026306,"1354":4.066549777984619,"1355":3.2145185470581055,"1356":-1.056349754333496,"1357":-2.409562110900879,"1358":-5.1894097328186035,"1359":1.9857542514801025,"1360":-5.995098114013672,"1361":-0.2961558401584625,"1362":6.615683078765869,"1363":2.8727877140045166,"1364":9.400530815124512,"1365":-1.8067033290863037,"1366":-2.2691454887390137,"1367":-3.198500156402588,"1368":-4.896566867828369,"1369":-7.360628128051758,"1370":4.12737512588501,"1371":0.49945539236068726,"1372":1.0838156938552856,"1373":-0.15949784219264984,"1374":4.184792995452881,"1375":-3.6215319633483887,"1376":7.164334774017334,"1377":-2.930272340774536,"1378":-1.7884337902069092,"1379":-2.0662436485290527,"1380":-2.593518018722534,"1381":5.399640083312988,"1382":-6.131082057952881,"1383":1.7541707754135132,"1384":3.9529905319213867,"1385":3.1250383853912354,"1386":4.458503723144531,"1387":-1.6118957996368408,"1388":2.0260889530181885,"1389":-5.1838698387146,"1390":-5.005980968475342,"1391":-3.135869026184082,"1392":-0.5687933564186096,"1393":2.337266683578491,"1394":3.669797897338867,"1395":-2.3958499431610107,"1396":4.412734508514404,"1397":-1.3187172412872314,"1398":-3.007272481918335,"1399":5.9417924880981445,"1400":0.05020711198449135,"1401":2.491306781768799,"1402":3.6004302501678467,"1403":0.6092565059661865,"1404":5.288751602172852,"1405":-3.1791255474090576,"1406":7.011133193969727,"1407":-4.342183589935303,"1408":-4.6883368492126465,"1409":1.696199893951416,"1410":4.319819927215576,"1411":-1.3054604530334473,"1412":-1.5910382270812988,"1413":-1.4735080003738403,"1414":-4.971291542053223,"1415":1.6183756589889526,"1416":4.5629167556762695,"1417":-3.1191322803497314,"1418":3.167023181915283,"1419":-0.12401030212640762,"1420":-1.4959020614624023,"1421":1.0315762758255005,"1422":1.476439118385315,"1423":0.7781194448471069,"1424":2.0983834266662598,"1425":-0.16335004568099976,"1426":-0.6523891091346741,"1427":2.3426296710968018,"1428":-0.4343045949935913,"1429":-1.8464486598968506,"1430":1.7709379196166992,"1431":2.108003854751587,"1432":1.1526840925216675,"1433":-0.8549453616142273,"1434":0.6670342087745667,"1435":0.15731646120548248,"1436":-0.9569641351699829,"1437":-1.4132049083709717,"1438":0.9381536245346069,"1439":-1.3608661890029907,"1440":-2.6403722763061523,"1441":-1.9839391708374023,"1442":-0.5159521698951721,"1443":-0.8057116866111755,"1444":-2.2368004322052,"1445":-2.536792278289795,"1446":1.0840694904327393,"1447":-0.5024003386497498,"1448":-2.276045083999634,"1449":-1.0060170888900757,"1450":-1.8860470056533813,"1451":1.2751624584197998,"1452":-0.4608980417251587,"1453":-0.8250848054885864,"1454":2.6092326641082764,"1455":-1.0025266408920288,"1456":2.1065621376037598,"1457":-2.156658411026001,"1458":1.905486822128296,"1459":-0.8157134652137756,"1460":0.25153449177742004,"1461":0.7234750986099243,"1462":-0.10149955749511719,"1463":-2.460162401199341,"1464":-3.5550284385681152,"1465":-1.119299054145813,"1466":-0.693397045135498,"1467":0.023407218977808952,"1468":1.6451724767684937,"1469":-1.1615049839019775,"1470":2.283146858215332,"1471":1.0198863744735718,"1472":2.2266476154327393,"1473":0.3283698558807373,"1474":0.557289183139801,"1475":-1.6880221366882324,"1476":-1.2555291652679443,"1477":0.2169012576341629,"1478":-3.7776122093200684,"1479":0.4819002151489258,"1480":2.3215084075927734,"1481":-0.17657560110092163,"1482":-0.29924651980400085,"1483":-0.9856054186820984,"1484":0.11299452185630798,"1485":0.6749857664108276,"1486":1.7265703678131104,"1487":1.7829934358596802,"1488":1.1648650169372559,"1489":1.8123211860656738,"1490":2.048497200012207,"1491":0.018315933644771576,"1492":0.9343293309211731,"1493":0.7903905510902405,"1494":-1.2784909009933472,"1495":-1.7038582563400269,"1496":-0.8492777943611145,"1497":0.027954425662755966,"1498":-0.8143332600593567,"1499":-2.6093082427978516,"1500":-2.1368186473846436,"1501":2.246878147125244,"1502":-0.9402737617492676,"1503":-3.22749400138855,"1504":2.8396193981170654,"1505":1.566551685333252,"1506":2.0704145431518555,"1507":0.2823282778263092,"1508":0.8039954304695129,"1509":1.9908093214035034,"1510":3.362520456314087,"1511":-0.5300502777099609,"1512":-1.7101495265960693,"1513":3.492832899093628,"1514":0.5550036430358887,"1515":-2.2391395568847656,"1516":1.4715619087219238,"1517":0.7867612838745117,"1518":0.23662936687469482,"1519":0.203266903758049,"1520":2.5046699047088623,"1521":0.09018342196941376,"1522":-1.608380913734436,"1523":-4.371406555175781,"1524":1.0136338472366333,"1525":-1.6254605054855347,"1526":-0.9068834185600281,"1527":-3.019050359725952,"1528":-2.8034982681274414,"1529":0.7371089458465576,"1530":-0.6708620190620422,"1531":-2.5247128009796143,"1532":0.41604694724082947,"1533":1.8025720119476318,"1534":-4.973730564117432,"1535":-1.2229442596435547,"1536":-0.9198000431060791,"1537":0.9243284463882446,"1538":-1.5746182203292847,"1539":0.7991912364959717,"1540":2.580474853515625,"1541":-0.6436471343040466,"1542":2.476074457168579,"1543":-2.6634135246276855,"1544":4.006949424743652,"1545":-1.9542059898376465,"1546":2.070746421813965,"1547":2.6573333740234375,"1548":-0.5853685736656189,"1549":-1.8612391948699951,"1550":-2.622000217437744,"1551":1.9773459434509277,"1552":1.7232908010482788,"1553":1.1089468002319336,"1554":-2.752255916595459,"1555":2.381139039993286,"1556":1.748774766921997,"1557":3.125915288925171,"1558":-0.8254255652427673,"1559":1.4053597450256348,"1560":1.2191240787506104,"1561":1.274484395980835,"1562":-2.733429431915283,"1563":-2.9978976249694824,"1564":-3.0776009559631348,"1565":1.757894515991211,"1566":-0.6235232949256897,"1567":-2.010552406311035,"1568":0.2163233906030655,"1569":-3.5855228900909424,"1570":-3.7040953636169434,"1571":-0.9750666618347168,"1572":-0.2091962993144989,"1573":1.1714627742767334,"1574":-0.35584408044815063,"1575":0.4924289882183075,"1576":1.1981697082519531,"1577":-2.348689079284668,"1578":-2.072061538696289,"1579":-3.7487542629241943,"1580":-1.6004592180252075,"1581":-2.0663366317749023,"1582":-1.4464442729949951,"1583":0.4541238844394684,"1584":1.0898346900939941,"1585":0.3539891839027405,"1586":-3.0412099361419678,"1587":0.493566632270813,"1588":0.04000858962535858,"1589":-1.8497059345245361,"1590":0.8139669895172119,"1591":7.948601722717285,"1592":-4.167258262634277,"1593":-6.9922356605529785,"1594":5.36622428894043,"1595":0.889039158821106,"1596":1.3190256357192993,"1597":-8.206856727600098,"1598":4.987717151641846,"1599":2.7118287086486816,"1600":1.7553094625473022,"1601":-3.482595205307007,"1602":0.8793222904205322,"1603":3.7028539180755615,"1604":3.399406909942627,"1605":-3.372467279434204,"1606":-3.568480968475342,"1607":-0.960432767868042,"1608":0.6020269393920898,"1609":-0.5534621477127075,"1610":-5.878167629241943,"1611":5.729411602020264,"1612":-2.035114288330078,"1613":-3.491154432296753,"1614":0.534680187702179,"1615":7.196147441864014,"1616":-0.8695785999298096,"1617":-1.8780205249786377,"1618":4.648634910583496,"1619":7.42213773727417,"1620":-4.8020124435424805,"1621":-0.5819059014320374,"1622":-2.2880406379699707,"1623":3.777134656906128,"1624":-10.543067932128906,"1625":2.9553401470184326,"1626":3.744596481323242,"1627":8.18896770477295,"1628":-1.3236157894134521,"1629":-1.98101806640625,"1630":0.4538644552230835,"1631":-2.0853052139282227,"1632":1.5190372467041016,"1633":2.693458080291748,"1634":-2.497670888900757,"1635":-3.7204935550689697,"1636":5.1931843757629395,"1637":-1.6764357089996338,"1638":-5.221656799316406,"1639":-3.4226531982421875,"1640":-4.7331132888793945,"1641":-2.752466917037964,"1642":2.06172776222229,"1643":-3.5571799278259277,"1644":-0.2473970353603363,"1645":2.550901412963867,"1646":-0.11997386813163757,"1647":-0.47556132078170776,"1648":6.249502182006836,"1649":4.8341264724731445,"1650":7.97173547744751,"1651":-2.90647292137146,"1652":-0.6561335325241089,"1653":3.9073104858398438,"1654":-2.3925907611846924,"1655":1.32322096824646,"1656":3.553011178970337,"1657":1.8535643815994263,"1658":-4.424867153167725,"1659":-0.2966088354587555,"1660":2.09016489982605,"1661":0.9877161383628845,"1662":-4.934156894683838,"1663":2.3982396125793457,"1664":4.390682220458984,"1665":1.0068522691726685,"1666":-3.3297646045684814,"1667":1.8303728103637695,"1668":1.864614486694336,"1669":-0.5240129828453064,"1670":-0.7162368893623352,"1671":-2.051815986633301,"1672":1.6916403770446777,"1673":-3.3793888092041016,"1674":-2.4206149578094482,"1675":-2.453530788421631,"1676":8.483359336853027,"1677":0.37057721614837646,"1678":2.7756428718566895,"1679":-7.111050605773926,"1680":-2.5989575386047363,"1681":0.902010440826416,"1682":-2.1857426166534424,"1683":3.4010426998138428,"1684":-1.1165295839309692,"1685":-0.892480194568634,"1686":2.2035088539123535,"1687":0.5479007363319397,"1688":-3.6253676414489746,"1689":-4.02838134765625,"1690":1.8411966562271118,"1691":3.612799882888794,"1692":-6.4134721755981445,"1693":8.8316650390625,"1694":4.553138256072998,"1695":3.645915985107422,"1696":0.2013426423072815,"1697":3.3440794944763184,"1698":0.5859594345092773,"1699":7.6722540855407715,"1700":4.293513298034668,"1701":-0.5478934645652771,"1702":-0.8092333078384399,"1703":5.231054782867432,"1704":-6.323086261749268,"1705":6.77811336517334,"1706":6.062166690826416,"1707":1.2232050895690918,"1708":1.6902663707733154,"1709":-0.8394268155097961,"1710":0.34013399481773376,"1711":1.357716679573059,"1712":-3.463473320007324,"1713":-4.516992568969727,"1714":0.8185269832611084,"1715":7.922158718109131,"1716":-2.5632622241973877,"1717":3.861525297164917,"1718":7.1471028327941895,"1719":-6.132140159606934,"1720":2.4021377563476562,"1721":-2.0479629039764404,"1722":0.5113359093666077,"1723":1.338958740234375,"1724":-0.44839516282081604,"1725":2.3474931716918945,"1726":-3.2087831497192383,"1727":3.7430500984191895,"1728":1.9008644819259644,"1729":1.8365812301635742,"1730":2.972334146499634,"1731":-3.5541164875030518,"1732":1.5338661670684814,"1733":-0.5489736199378967,"1734":-3.6088080406188965,"1735":-2.8040785789489746,"1736":-3.074270009994507,"1737":4.361785888671875,"1738":-2.651507616043091,"1739":-3.9672391414642334,"1740":7.997940540313721,"1741":-1.736873984336853,"1742":-0.019940055906772614,"1743":-4.658966064453125,"1744":0.9011159539222717,"1745":6.500399112701416,"1746":-1.5894144773483276,"1747":1.2917481660842896,"1748":1.678351640701294,"1749":-0.2625506520271301,"1750":-1.883827567100525,"1751":-5.240590572357178,"1752":-3.1717476844787598,"1753":-0.9162260890007019,"1754":4.666773319244385,"1755":1.04188871383667,"1756":5.242037296295166,"1757":-2.5668704509735107,"1758":-3.7178115844726562,"1759":3.4389688968658447,"1760":1.465122938156128,"1761":-1.5969696044921875,"1762":5.024895668029785,"1763":0.2582332491874695,"1764":-0.2601158618927002,"1765":0.10941153764724731,"1766":0.4650191366672516,"1767":0.05400983616709709,"1768":1.4177801609039307,"1769":0.39508357644081116,"1770":-0.23629309237003326,"1771":2.2589659690856934,"1772":0.18666419386863708,"1773":-0.6637485027313232,"1774":0.4028829038143158,"1775":0.598362922668457,"1776":-0.6856563687324524,"1777":-0.21617953479290009,"1778":0.5605588555335999,"1779":-0.565889298915863,"1780":0.34989094734191895,"1781":0.6000891923904419,"1782":0.29780253767967224,"1783":-0.3645344376564026,"1784":-2.2241835594177246,"1785":-1.0398207902908325,"1786":0.8036401271820068,"1787":-0.4286825656890869,"1788":-1.2669204473495483,"1789":-1.1162372827529907,"1790":-0.08245982974767685,"1791":-0.48988065123558044,"1792":-2.3253390789031982,"1793":1.3567266464233398,"1794":-1.3731645345687866,"1795":0.47462522983551025,"1796":-0.5209771394729614,"1797":-1.1017465591430664,"1798":2.1844563484191895,"1799":-0.7420422434806824,"1800":2.1220591068267822,"1801":-2.7841107845306396,"1802":1.5593234300613403,"1803":0.020551208406686783,"1804":-0.9573419094085693,"1805":0.5949094891548157,"1806":0.2414526492357254,"1807":0.5109328627586365,"1808":-1.511590600013733,"1809":2.741971492767334,"1810":1.3040140867233276,"1811":0.9640244245529175,"1812":0.3090221881866455,"1813":-0.5782138109207153,"1814":1.4082082509994507,"1815":0.14047473669052124,"1816":-0.40765848755836487,"1817":0.3244742453098297,"1818":1.091376543045044,"1819":-0.05019240826368332,"1820":0.7698656320571899,"1821":0.04337651655077934,"1822":-1.0387506484985352,"1823":-0.05212454870343208,"1824":-1.628186583518982,"1825":0.08068463206291199,"1826":-0.06770050525665283,"1827":-3.4963865280151367,"1828":-0.12108460068702698,"1829":-1.8345694541931152,"1830":0.4846818745136261,"1831":-0.1885952651500702,"1832":-1.9302302598953247,"1833":0.7454483509063721,"1834":1.8325248956680298,"1835":-0.14842668175697327,"1836":-1.1614359617233276,"1837":-0.08531306684017181,"1838":1.5791553258895874,"1839":-0.6918438076972961,"1840":0.13210028409957886,"1841":0.9837990403175354,"1842":-0.4045158624649048,"1843":1.3087254762649536,"1844":-0.25652098655700684,"1845":1.4281197786331177,"1846":0.0968567505478859,"1847":1.115607738494873,"1848":0.5794991254806519,"1849":0.06605859845876694,"1850":0.03599543124437332,"1851":-0.07842311263084412,"1852":0.0006627733237110078,"1853":-0.07668337225914001,"1854":-0.0738971158862114,"1855":-0.012365811504423618,"1856":-0.06107078120112419,"1857":0.050782181322574615,"1858":-0.0030176194850355387,"1859":-0.010877351276576519,"1860":-0.0007960284710861742,"1861":0.011786175891757011,"1862":-0.048383086919784546,"1863":-0.04036892578005791,"1864":-0.05377381667494774,"1865":0.00548708438873291,"1866":-0.017099954187870026,"1867":-0.06904178112745285,"1868":-0.0685935840010643,"1869":0.064110666513443,"1870":0.07089167833328247,"1871":-0.05518285930156708,"1872":-0.07879385352134705,"1873":-0.06775841116905212,"1874":-0.027790144085884094,"1875":-0.06191219389438629,"1876":-0.052327170968055725,"1877":-0.0041870675049722195,"1878":0.033672478049993515,"1879":-0.04527986794710159,"1880":-0.01884699985384941,"1881":0.02268069237470627,"1882":0.03459440544247627,"1883":0.029346436262130737,"1884":0.03251448646187782,"1885":0.07038035243749619,"1886":-0.02000219002366066,"1887":-0.04979323595762253,"1888":-0.0644640177488327,"1889":0.05006824806332588,"1890":-0.010038859210908413,"1891":-0.046458277851343155}},"hiddenLayers":[{"inputMatrix":{"rows":20,"columns":43,"weights":{"0":0.5166218280792236,"1":0.5127254724502563,"2":-0.7439202666282654,"3":-0.5791935324668884,"4":-1.307405710220337,"5":0.9825034141540527,"6":0.5265530943870544,"7":-1.1300090551376343,"8":-1.3940281867980957,"9":-0.7225503921508789,"10":-0.7090577483177185,"11":-0.07544170320034027,"12":-0.3362707495689392,"13":1.1229771375656128,"14":-0.7601214647293091,"15":0.13836415112018585,"16":0.9970219731330872,"17":-1.325990080833435,"18":1.2811357975006104,"19":0.2652040421962738,"20":0.0008344044908881187,"21":2.6566219329833984,"22":0.10736600309610367,"23":0.7162195444107056,"24":0.27702680230140686,"25":-0.8447421789169312,"26":1.4883655309677124,"27":-0.7705987095832825,"28":0.09876356273889542,"29":0.5911639332771301,"30":0.6874387264251709,"31":2.874739170074463,"32":-0.6187635064125061,"33":-0.2501966059207916,"34":-0.5738598704338074,"35":-1.4241317510604858,"36":-0.8480170369148254,"37":-1.2744760513305664,"38":0.40920594334602356,"39":-0.13194292783737183,"40":-0.45806628465652466,"41":1.6789528131484985,"42":-0.7524617910385132,"43":-0.5950955748558044,"44":-3.1849558353424072,"45":-0.10370789468288422,"46":0.17883290350437164,"47":-0.7526813745498657,"48":0.5713430643081665,"49":-0.46277865767478943,"50":-0.9530693292617798,"51":1.2114936113357544,"52":-1.422948956489563,"53":-0.21210888028144836,"54":2.372171640396118,"55":1.3563698530197144,"56":0.5396237373352051,"57":-0.621964156627655,"58":0.9962572455406189,"59":1.0664212703704834,"60":-0.5235190987586975,"61":-0.5931106209754944,"62":0.10555962473154068,"63":0.4320826530456543,"64":0.040024224668741226,"65":-1.196828007698059,"66":0.5593395233154297,"67":-0.008992580696940422,"68":-2.0246572494506836,"69":-0.3799442648887634,"70":1.2415239810943604,"71":1.0222887992858887,"72":0.06021702662110329,"73":-0.047727130353450775,"74":-0.8113626837730408,"75":0.20508906245231628,"76":0.47097644209861755,"77":0.1900540590286255,"78":2.394627809524536,"79":0.20796184241771698,"80":-0.39962270855903625,"81":-1.3016802072525024,"82":-0.659323513507843,"83":-1.0395382642745972,"84":0.4992273151874542,"85":1.8469358682632446,"86":1.0879851579666138,"87":0.34214919805526733,"88":-1.4310240745544434,"89":-0.21268098056316376,"90":-1.0788989067077637,"91":-0.6443746089935303,"92":-0.6957978010177612,"93":1.4179869890213013,"94":-1.5187406539916992,"95":1.2726377248764038,"96":0.23971185088157654,"97":-0.5300593376159668,"98":-1.2332377433776855,"99":-0.7169296145439148,"100":0.7557846903800964,"101":-0.2544810175895691,"102":1.1346461772918701,"103":-0.2994076609611511,"104":0.9944861531257629,"105":-1.391205072402954,"106":0.8450660109519958,"107":0.6593012809753418,"108":0.23232725262641907,"109":-0.20815396308898926,"110":1.6678614616394043,"111":-0.8000447154045105,"112":0.3334481716156006,"113":-0.20795588195323944,"114":0.36040231585502625,"115":-0.11909965425729752,"116":0.673294723033905,"117":0.48055118322372437,"118":-0.6758995056152344,"119":-0.6289446949958801,"120":1.4491528272628784,"121":-1.4051812887191772,"122":2.0596697330474854,"123":-0.19719365239143372,"124":-0.2158879041671753,"125":0.3558523952960968,"126":0.16371266543865204,"127":-0.22044336795806885,"128":0.38066738843917847,"129":-0.5640742182731628,"130":-2.2632431983947754,"131":0.23446181416511536,"132":0.3538511097431183,"133":1.2403069734573364,"134":-0.0015932336682453752,"135":1.008170247077942,"136":-1.231805443763733,"137":1.6987265348434448,"138":-0.5911684632301331,"139":-0.9319308400154114,"140":0.4751514792442322,"141":0.609867513179779,"142":0.8654804229736328,"143":-1.0415390729904175,"144":0.5164941549301147,"145":-2.2388625144958496,"146":0.9182784557342529,"147":-0.543659508228302,"148":0.32579854130744934,"149":0.3833325505256653,"150":-0.5556330680847168,"151":-0.14195314049720764,"152":-0.13503329455852509,"153":-0.7817826867103577,"154":-0.24869568645954132,"155":-0.21522347629070282,"156":1.8696191310882568,"157":-0.024179302155971527,"158":0.45933741331100464,"159":-0.6531971096992493,"160":0.07952511310577393,"161":0.6697547435760498,"162":0.055294495075941086,"163":-0.39652398228645325,"164":0.7077245116233826,"165":-0.9807144999504089,"166":0.7331745028495789,"167":-0.4399833679199219,"168":0.09463051706552505,"169":-0.8598945736885071,"170":-0.0725579708814621,"171":1.7178047895431519,"172":-0.7393568158149719,"173":0.5938941836357117,"174":-0.1596260517835617,"175":1.1894888877868652,"176":2.0246493816375732,"177":1.5336477756500244,"178":1.6657209396362305,"179":-1.3253246545791626,"180":0.0009057957213371992,"181":-1.4199753999710083,"182":-1.2837871313095093,"183":-0.17261047661304474,"184":1.0283342599868774,"185":0.8679521679878235,"186":-1.1755614280700684,"187":0.3056608736515045,"188":-0.8433598279953003,"189":-1.7402539253234863,"190":1.206288456916809,"191":1.1025116443634033,"192":-0.4366799592971802,"193":0.43868201971054077,"194":0.7685163021087646,"195":-1.2709875106811523,"196":-0.7347961068153381,"197":0.004837902262806892,"198":-1.1425678730010986,"199":-0.1776985228061676,"200":-0.014112512581050396,"201":0.8074706196784973,"202":-1.747536063194275,"203":1.6835001707077026,"204":1.6263917684555054,"205":0.14936217665672302,"206":-0.9662985801696777,"207":-0.31736549735069275,"208":-1.9599804878234863,"209":0.755603015422821,"210":-0.2414463311433792,"211":1.964410662651062,"212":-0.3018914461135864,"213":0.19521097838878632,"214":0.09322551637887955,"215":0.3172200322151184,"216":1.343235731124878,"217":-0.9582998752593994,"218":-1.2461950778961182,"219":-1.582513451576233,"220":-0.1616554856300354,"221":0.980513870716095,"222":0.02867252379655838,"223":0.5162317156791687,"224":2.3511993885040283,"225":0.5538504123687744,"226":-0.9910948872566223,"227":-0.7976791858673096,"228":-1.4278579950332642,"229":0.31225502490997314,"230":-0.6683139801025391,"231":0.06098492816090584,"232":0.731575071811676,"233":0.2533673942089081,"234":-1.5174529552459717,"235":0.5297423601150513,"236":-0.840128481388092,"237":0.26365238428115845,"238":0.4667510688304901,"239":0.7656206488609314,"240":0.5107418298721313,"241":-0.28540632128715515,"242":-1.1823736429214478,"243":-0.5083686709403992,"244":-0.25283506512641907,"245":1.7032493352890015,"246":-0.4914536774158478,"247":-1.3583934307098389,"248":-0.3034091889858246,"249":-0.4531051814556122,"250":0.28634801506996155,"251":-0.18430937826633453,"252":0.2760956585407257,"253":-0.18115495145320892,"254":0.6175259947776794,"255":1.6331496238708496,"256":-0.10312613844871521,"257":-0.4768509864807129,"258":-1.3748972415924072,"259":0.8121705055236816,"260":0.9625136852264404,"261":0.2961115837097168,"262":0.30601340532302856,"263":-0.0014365420211106539,"264":1.5374583005905151,"265":-1.911989688873291,"266":0.782438337802887,"267":-1.6399859189987183,"268":-1.2403984069824219,"269":0.17463111877441406,"270":-0.1725476086139679,"271":2.1650333404541016,"272":0.39992979168891907,"273":0.8145433664321899,"274":1.2261245250701904,"275":-0.6399562358856201,"276":0.2905978858470917,"277":1.6445776224136353,"278":-1.0135143995285034,"279":0.3215175271034241,"280":0.6050653457641602,"281":0.5337532758712769,"282":-0.7919007539749146,"283":-0.5459715723991394,"284":0.0438956618309021,"285":-1.249640703201294,"286":-0.6805542707443237,"287":-0.37909218668937683,"288":0.16371262073516846,"289":0.9745976328849792,"290":-0.1461108773946762,"291":1.0927737951278687,"292":-2.1793551445007324,"293":0.522123396396637,"294":-2.294973373413086,"295":0.09226584434509277,"296":0.02204408496618271,"297":0.2143135517835617,"298":-0.941552996635437,"299":-0.2288902997970581,"300":-1.7456525564193726,"301":-0.17230772972106934,"302":-0.9546447992324829,"303":-0.2289109230041504,"304":-0.06905155628919601,"305":1.3748934268951416,"306":1.8380439281463623,"307":0.9152640700340271,"308":-0.40526098012924194,"309":0.5299623608589172,"310":0.572313129901886,"311":0.9469602704048157,"312":-0.0036289270501583815,"313":1.2720850706100464,"314":-0.7546432018280029,"315":-1.9166654348373413,"316":0.09680120646953583,"317":-0.909254789352417,"318":0.4333266019821167,"319":-0.5998753309249878,"320":-0.028844332322478294,"321":-1.3883211612701416,"322":-0.11398189514875412,"323":-1.4061369895935059,"324":0.20358066260814667,"325":0.6079205870628357,"326":0.09145426750183105,"327":-0.6346620917320251,"328":0.485270231962204,"329":-0.5860512256622314,"330":-0.12078409641981125,"331":-0.15149934589862823,"332":0.8052356839179993,"333":1.8951283693313599,"334":-0.966937243938446,"335":0.12964025139808655,"336":0.8951243162155151,"337":-0.9033843278884888,"338":0.6299148797988892,"339":0.3597009479999542,"340":0.3455328047275543,"341":0.6180177330970764,"342":-0.3086724281311035,"343":0.15349477529525757,"344":-0.8914039134979248,"345":-1.4838634729385376,"346":1.3624193668365479,"347":0.3338010013103485,"348":-0.35683223605155945,"349":0.4098860025405884,"350":0.3373740613460541,"351":0.29595714807510376,"352":-0.31439486145973206,"353":-0.5677233338356018,"354":0.35434281826019287,"355":2.356379985809326,"356":2.1038317680358887,"357":-0.8132377862930298,"358":0.42345675826072693,"359":1.3245832920074463,"360":-1.7854866981506348,"361":-0.8159369230270386,"362":-0.605259358882904,"363":0.7633172273635864,"364":-1.5557390451431274,"365":1.1291133165359497,"366":-0.7611908316612244,"367":-1.3055286407470703,"368":-0.0025691636838018894,"369":0.16092132031917572,"370":-0.8264182806015015,"371":1.3485347032546997,"372":-2.086299180984497,"373":-0.10984353721141815,"374":-0.9960821270942688,"375":0.5619916915893555,"376":0.4200628995895386,"377":0.6578299403190613,"378":-0.1478564292192459,"379":0.6147401332855225,"380":0.07639382034540176,"381":-0.18177077174186707,"382":-1.5092957019805908,"383":0.3604885935783386,"384":-1.5898107290267944,"385":-1.1832921504974365,"386":1.318903923034668,"387":-0.2285422533750534,"388":-0.5673357248306274,"389":0.4147580564022064,"390":-1.2929250001907349,"391":-1.3150720596313477,"392":-0.1605236679315567,"393":0.09823882579803467,"394":-0.24080713093280792,"395":0.5819639563560486,"396":0.5561673045158386,"397":0.21736514568328857,"398":-0.3772325813770294,"399":-0.029156886041164398,"400":-0.43908968567848206,"401":1.4635117053985596,"402":-0.42785853147506714,"403":-0.1812094897031784,"404":1.1140878200531006,"405":-0.427277535200119,"406":0.5423592329025269,"407":0.6444889307022095,"408":1.2106103897094727,"409":1.7134289741516113,"410":-0.4250595271587372,"411":0.04360199347138405,"412":2.958869457244873,"413":0.5287817120552063,"414":0.22727136313915253,"415":-0.12170691788196564,"416":0.5000685453414917,"417":0.10051745921373367,"418":0.5714570879936218,"419":-1.519751787185669,"420":0.8812982439994812,"421":0.6552020907402039,"422":-0.8167128562927246,"423":-0.49909910559654236,"424":-2.312012195587158,"425":1.0677390098571777,"426":0.25395089387893677,"427":-0.8476122617721558,"428":-2.9902565479278564,"429":0.16457508504390717,"430":-0.19777022302150726,"431":-1.4455498456954956,"432":1.0760856866836548,"433":1.3341050148010254,"434":0.7877699136734009,"435":0.9104494452476501,"436":-0.48895061016082764,"437":-0.11415454000234604,"438":0.47813114523887634,"439":-2.0118231773376465,"440":-0.16444024443626404,"441":2.008603811264038,"442":0.810560941696167,"443":0.8620656728744507,"444":-0.8595049977302551,"445":1.9477531909942627,"446":-0.16923551261425018,"447":-1.5853267908096313,"448":0.5079157948493958,"449":0.7177709937095642,"450":-0.33779433369636536,"451":-1.5735225677490234,"452":-1.1551891565322876,"453":-0.0947866216301918,"454":-2.0957329273223877,"455":-2.0663540363311768,"456":-1.4297362565994263,"457":0.6762617826461792,"458":0.5857288837432861,"459":-0.9131496548652649,"460":-0.5317391157150269,"461":-2.096872329711914,"462":0.8168525099754333,"463":0.7143294811248779,"464":-1.1179691553115845,"465":0.6615455746650696,"466":0.45433875918388367,"467":0.4093456268310547,"468":-0.9224880337715149,"469":-0.08968057483434677,"470":-1.1013622283935547,"471":0.6923897862434387,"472":0.36408841609954834,"473":0.9226709604263306,"474":-0.8537235856056213,"475":0.6256463527679443,"476":-0.8237494230270386,"477":-0.9799768924713135,"478":-1.112012267112732,"479":-0.8613991141319275,"480":0.7513314485549927,"481":-1.0322847366333008,"482":-0.4981188178062439,"483":-0.000811415200587362,"484":-0.13435102999210358,"485":-1.1500953435897827,"486":-0.0764944851398468,"487":0.3349362015724182,"488":0.34333303570747375,"489":-0.06954993307590485,"490":0.1071857213973999,"491":0.7951154112815857,"492":-0.2244517207145691,"493":0.8917708992958069,"494":0.2910488247871399,"495":0.38978201150894165,"496":0.2572700083255768,"497":0.012409793213009834,"498":-0.33579713106155396,"499":1.0314017534255981,"500":0.7480206489562988,"501":-0.0259629525244236,"502":0.16423119604587555,"503":0.2610580325126648,"504":0.3026683032512665,"505":0.26421546936035156,"506":-0.40185537934303284,"507":0.9916048049926758,"508":-0.19957594573497772,"509":1.5536397695541382,"510":-0.38788288831710815,"511":0.6394368410110474,"512":-1.8016571998596191,"513":0.512374997138977,"514":0.2134614735841751,"515":0.8608764410018921,"516":1.6100866794586182,"517":-0.14816927909851074,"518":-1.2942215204238892,"519":0.2533608675003052,"520":-0.4731331169605255,"521":0.7009693384170532,"522":-1.4277929067611694,"523":1.0811784267425537,"524":0.8147411346435547,"525":1.8741270303726196,"526":-0.30438175797462463,"527":-0.01485353708267212,"528":0.08949226140975952,"529":-0.8145177960395813,"530":0.5020469427108765,"531":-0.9729002714157104,"532":0.10894964635372162,"533":0.8512684106826782,"534":0.4195500612258911,"535":-1.190673589706421,"536":0.30294740200042725,"537":-1.5712612867355347,"538":-0.4609915018081665,"539":-0.17052464187145233,"540":1.1737672090530396,"541":-0.18268199265003204,"542":-0.08271779865026474,"543":0.37054646015167236,"544":1.0786967277526855,"545":-0.8187961578369141,"546":0.40679001808166504,"547":-1.8039846420288086,"548":-1.3271455764770508,"549":-1.6627585887908936,"550":1.4303271770477295,"551":0.37835457921028137,"552":1.6214265823364258,"553":1.1009129285812378,"554":-1.6733901500701904,"555":1.6194946765899658,"556":0.35541942715644836,"557":0.6885784864425659,"558":1.234820008277893,"559":-0.0480291023850441,"560":-0.819701611995697,"561":-0.7931267023086548,"562":1.631170392036438,"563":1.503461480140686,"564":1.4732255935668945,"565":0.058916471898555756,"566":-0.32754507660865784,"567":0.7819016575813293,"568":-0.6065079569816589,"569":-1.0855532884597778,"570":0.2812661826610565,"571":0.37755483388900757,"572":0.09270613640546799,"573":-1.7439528703689575,"574":0.27504342794418335,"575":-1.5634709596633911,"576":-1.083838701248169,"577":0.5855303406715393,"578":0.3825128674507141,"579":0.10395754128694534,"580":-0.8354360461235046,"581":-2.095102310180664,"582":-0.26724010705947876,"583":0.35980483889579773,"584":-0.5383307337760925,"585":-0.9185342192649841,"586":0.6844419240951538,"587":0.895372748374939,"588":-1.4189265966415405,"589":-1.9605740308761597,"590":1.244062066078186,"591":2.831003427505493,"592":-0.9960736036300659,"593":-0.1457764208316803,"594":0.5742151141166687,"595":-0.013871949166059494,"596":1.5060514211654663,"597":-2.345726490020752,"598":0.9649971723556519,"599":-0.686046838760376,"600":0.2727198302745819,"601":0.8643126487731934,"602":1.0908995866775513,"603":0.6173422932624817,"604":0.9011616110801697,"605":0.8677162528038025,"606":-0.1259716898202896,"607":0.08302150666713715,"608":0.1694890558719635,"609":0.46674636006355286,"610":-0.7972359657287598,"611":1.0675809383392334,"612":-0.23390747606754303,"613":-0.5849795341491699,"614":-1.2198046445846558,"615":-0.25900477170944214,"616":-1.296236515045166,"617":0.16438105702400208,"618":-0.7948223948478699,"619":-0.08239627629518509,"620":0.4344383180141449,"621":-1.2657502889633179,"622":1.6932379007339478,"623":0.7523682117462158,"624":1.7106696367263794,"625":-1.3319209814071655,"626":-1.0127400159835815,"627":0.2227686643600464,"628":0.1684999167919159,"629":-1.9200963973999023,"630":-0.7509375810623169,"631":1.0321085453033447,"632":-0.753568172454834,"633":0.4043756127357483,"634":0.1795489639043808,"635":1.2624492645263672,"636":-0.08321109414100647,"637":-1.1867681741714478,"638":0.8433635830879211,"639":0.11035601794719696,"640":0.6159109473228455,"641":0.2339697629213333,"642":0.3444163501262665,"643":-0.3468042016029358,"644":-1.6933873891830444,"645":0.0831645280122757,"646":-0.7534786462783813,"647":-1.1603771448135376,"648":0.8266199827194214,"649":0.2984119653701782,"650":-0.44747674465179443,"651":0.39512813091278076,"652":-0.4381469488143921,"653":1.1964472532272339,"654":0.03886719420552254,"655":-1.1433894634246826,"656":0.9044079184532166,"657":0.7824416160583496,"658":0.23123964667320251,"659":0.899161159992218,"660":0.3084821105003357,"661":-0.3188574016094208,"662":-0.05297202989459038,"663":0.4892125129699707,"664":0.7871420383453369,"665":-0.8578236103057861,"666":-1.0233412981033325,"667":-0.7435256838798523,"668":0.2524573802947998,"669":0.28575485944747925,"670":-0.5462085604667664,"671":-0.5036108493804932,"672":0.8094402551651001,"673":0.8040748834609985,"674":-1.0832899808883667,"675":0.02145187184214592,"676":0.7824066281318665,"677":1.0669634342193604,"678":-0.9539578557014465,"679":-1.0537930727005005,"680":2.2166242599487305,"681":-0.6662302017211914,"682":0.48612111806869507,"683":0.27131351828575134,"684":-0.8297829031944275,"685":-1.231583595275879,"686":-0.4033251106739044,"687":0.022950850427150726,"688":1.2168728113174438,"689":-2.0007662773132324,"690":0.15953518450260162,"691":-0.46368134021759033,"692":-0.6751089692115784,"693":0.10997573286294937,"694":-0.927485466003418,"695":1.149579405784607,"696":0.35712242126464844,"697":0.7326561808586121,"698":-0.27503836154937744,"699":-0.008274655789136887,"700":0.6437675952911377,"701":-1.0779540538787842,"702":-0.0022722736466675997,"703":0.4842909872531891,"704":0.4567793011665344,"705":0.2211761474609375,"706":-1.670434594154358,"707":-1.2289159297943115,"708":0.9946889877319336,"709":-0.8092885613441467,"710":0.2615818977355957,"711":-0.27732139825820923,"712":-0.13431517779827118,"713":0.4340483844280243,"714":-0.34114328026771545,"715":2.3659465312957764,"716":0.7806540727615356,"717":-0.045701682567596436,"718":0.6438456773757935,"719":-0.41315990686416626,"720":0.22997123003005981,"721":-0.12920667231082916,"722":2.6261348724365234,"723":0.6995208859443665,"724":1.4636542797088623,"725":-0.050806671380996704,"726":-0.5087723135948181,"727":-0.035928934812545776,"728":0.8138745427131653,"729":-0.1680975705385208,"730":2.575554370880127,"731":0.6084285974502563,"732":0.8575109839439392,"733":-1.1631525754928589,"734":-0.2450234442949295,"735":-0.23587678372859955,"736":1.9340234994888306,"737":-0.25930050015449524,"738":0.9449116587638855,"739":0.9634693264961243,"740":0.7304840683937073,"741":-0.6675460934638977,"742":-0.07573781162500381,"743":0.3575551211833954,"744":-0.0858655646443367,"745":0.4478822648525238,"746":-1.5513513088226318,"747":-0.3645138144493103,"748":0.8443650007247925,"749":-1.951047420501709,"750":-1.4032307863235474,"751":1.5958669185638428,"752":1.4404784440994263,"753":-0.2946530282497406,"754":-1.1827826499938965,"755":1.5945898294448853,"756":-0.028630144894123077,"757":-0.2942955791950226,"758":0.28597572445869446,"759":1.5244321823120117,"760":-0.4445166289806366,"761":0.24494583904743195,"762":0.4675861597061157,"763":0.1349710375070572,"764":-0.7062995433807373,"765":0.8101350665092468,"766":0.5244489312171936,"767":0.3400181233882904,"768":0.4590817391872406,"769":-1.6895116567611694,"770":2.2137396335601807,"771":1.6022560596466064,"772":1.316826343536377,"773":2.7760934829711914,"774":0.7296770811080933,"775":-0.6744046807289124,"776":-0.12118702381849289,"777":2.663511037826538,"778":1.078952670097351,"779":0.3257835805416107,"780":-0.13536466658115387,"781":-0.6873036623001099,"782":1.2125343084335327,"783":-0.5238696336746216,"784":-0.46204236149787903,"785":0.5600383281707764,"786":1.204419493675232,"787":1.288590908050537,"788":-2.0243632793426514,"789":0.6952347159385681,"790":-2.083101987838745,"791":0.19064393639564514,"792":-0.14651857316493988,"793":0.33725494146347046,"794":1.1674929857254028,"795":-2.56679630279541,"796":0.4602867066860199,"797":-1.5645643472671509,"798":-1.5692967176437378,"799":-0.7566766142845154,"800":-0.609589159488678,"801":0.652588427066803,"802":0.7674071192741394,"803":-0.10986403375864029,"804":-1.207675576210022,"805":0.10265765339136124,"806":0.9461125135421753,"807":0.4541322886943817,"808":-1.0435494184494019,"809":0.36382144689559937,"810":-0.6983388066291809,"811":0.9271990656852722,"812":-0.39379510283470154,"813":0.7789918184280396,"814":-0.5013797283172607,"815":-0.27275723218917847,"816":-0.4834664762020111,"817":-1.17159903049469,"818":-1.1325862407684326,"819":-0.8352654576301575,"820":1.0980638265609741,"821":1.0854754447937012,"822":-1.1495044231414795,"823":0.6451935172080994,"824":0.3014923632144928,"825":-0.18974247574806213,"826":0.8449314832687378,"827":-0.16631604731082916,"828":-0.5417082905769348,"829":-0.977619469165802,"830":0.13795988261699677,"831":0.4534115493297577,"832":-2.130878448486328,"833":-0.6104023456573486,"834":1.0781418085098267,"835":-0.9785740375518799,"836":-0.41510576009750366,"837":-0.6977431774139404,"838":-0.9983384013175964,"839":0.2818898856639862,"840":-1.5330326557159424,"841":1.116904616355896,"842":1.282443881034851,"843":-0.2726181447505951,"844":-0.16520501673221588,"845":-0.5456465482711792,"846":0.6237135529518127,"847":-0.13050955533981323,"848":0.7376946210861206,"849":-0.43352484703063965,"850":-2.015244960784912,"851":0.3409270942211151,"852":-0.22039754688739777,"853":-0.7593164443969727,"854":0.8700632452964783,"855":1.2046046257019043,"856":-1.0516551733016968,"857":0.8514689207077026,"858":1.6829307079315186,"859":-0.7875010967254639}},"inputHidden":{"rows":20,"columns":20,"weights":{"0":0.5232428312301636,"1":1.4499167203903198,"2":-0.5572234392166138,"3":1.738839864730835,"4":1.4517383575439453,"5":1.4109339714050293,"6":-1.9116148948669434,"7":0.35315367579460144,"8":0.5693131685256958,"9":-2.0407495498657227,"10":-0.8215769529342651,"11":0.6289323568344116,"12":0.6008337736129761,"13":0.5265989899635315,"14":0.2602927088737488,"15":1.9742439985275269,"16":-0.8324702382087708,"17":0.5257307887077332,"18":-1.4894949197769165,"19":0.15256857872009277,"20":0.7193055748939514,"21":-0.9809232950210571,"22":-0.7022581100463867,"23":-1.165868878364563,"24":-1.5587055683135986,"25":0.14948278665542603,"26":-0.30879226326942444,"27":0.10629675537347794,"28":-0.23068870604038239,"29":0.1164606437087059,"30":0.388615220785141,"31":-1.178895115852356,"32":0.132655069231987,"33":-0.531603217124939,"34":2.3549540042877197,"35":-1.0474025011062622,"36":0.05252226069569588,"37":-0.5062201023101807,"38":0.4965469241142273,"39":0.2785145342350006,"40":0.5738157033920288,"41":1.821829080581665,"42":0.6761693358421326,"43":1.846294641494751,"44":1.2317523956298828,"45":-2.1388068199157715,"46":0.4731871783733368,"47":-0.4546199440956116,"48":0.5019074082374573,"49":3.4799554347991943,"50":-0.45049259066581726,"51":1.0667791366577148,"52":-1.583170771598816,"53":-0.015963353216648102,"54":0.20982374250888824,"55":-0.019431333988904953,"56":-0.7721359133720398,"57":0.72161465883255,"58":-1.038879156112671,"59":1.1390080451965332,"60":-2.5843818187713623,"61":-0.059285249561071396,"62":1.439956545829773,"63":-2.9247374534606934,"64":-1.8396199941635132,"65":1.8295985460281372,"66":-1.0502698421478271,"67":-0.9212623238563538,"68":1.770061731338501,"69":0.5934146046638489,"70":0.7780383229255676,"71":-0.7011795043945312,"72":2.69284725189209,"73":1.5299437046051025,"74":-0.5837728977203369,"75":2.5543713569641113,"76":0.5729177594184875,"77":-1.8695019483566284,"78":-0.4526382386684418,"79":-0.37131786346435547,"80":-0.23514913022518158,"81":-0.26453420519828796,"82":-0.2524879276752472,"83":-0.921112596988678,"84":-0.43241190910339355,"85":0.6022427678108215,"86":-0.8910808563232422,"87":0.5579074025154114,"88":0.7485079765319824,"89":0.911702573299408,"90":-0.19738245010375977,"91":-1.1938292980194092,"92":0.4741728901863098,"93":0.40887653827667236,"94":-0.9668298363685608,"95":-0.430431991815567,"96":0.043527983129024506,"97":-0.0981733575463295,"98":-0.9737401008605957,"99":-1.1459351778030396,"100":-0.9811677932739258,"101":1.0563398599624634,"102":2.0107250213623047,"103":-2.5537757873535156,"104":1.4240765571594238,"105":0.6985465884208679,"106":-1.048040509223938,"107":3.3551998138427734,"108":-2.5323383808135986,"109":-0.8043538331985474,"110":-1.6931474208831787,"111":-2.8235080242156982,"112":-0.11969944089651108,"113":-0.4372495114803314,"114":-0.6103260517120361,"115":0.7778641581535339,"116":-1.5125867128372192,"117":-2.081369161605835,"118":-2.678178071975708,"119":-2.5975468158721924,"120":-1.9446954727172852,"121":1.4729465246200562,"122":-1.5986915826797485,"123":-0.2852410078048706,"124":-0.9311983585357666,"125":-0.07455427199602127,"126":1.696912407875061,"127":-0.4346003532409668,"128":-0.17184790968894958,"129":1.7477176189422607,"130":-0.35035544633865356,"131":0.36276280879974365,"132":-0.06507614254951477,"133":-0.24374915659427643,"134":1.4365063905715942,"135":0.5866944193840027,"136":0.8284683227539062,"137":0.9489216804504395,"138":0.10030444711446762,"139":1.3272355794906616,"140":-0.016909001395106316,"141":-0.8725643157958984,"142":-1.5582613945007324,"143":3.8281800746917725,"144":-2.193246364593506,"145":0.2743346393108368,"146":-2.1859946250915527,"147":0.06686406582593918,"148":-1.1172040700912476,"149":-0.11533226817846298,"150":0.3068791925907135,"151":-0.758593738079071,"152":2.8897294998168945,"153":1.9100137948989868,"154":1.7548794746398926,"155":0.5706191658973694,"156":1.5382970571517944,"157":1.7389034032821655,"158":-1.2461689710617065,"159":-0.22912484407424927,"160":1.0768707990646362,"161":0.4838484227657318,"162":-1.7795878648757935,"163":-0.6851627826690674,"164":0.9978305101394653,"165":-1.7268006801605225,"166":1.4112956523895264,"167":-1.2173330783843994,"168":0.2926686704158783,"169":0.5011473894119263,"170":-0.2722652852535248,"171":0.35895273089408875,"172":-1.1946628093719482,"173":-2.705580472946167,"174":0.7102704644203186,"175":0.22075925767421722,"176":0.26817166805267334,"177":-1.66867995262146,"178":0.554711103439331,"179":0.17219844460487366,"180":-1.2845174074172974,"181":-0.8838977217674255,"182":-2.8958282470703125,"183":-0.6196585893630981,"184":-0.6453168988227844,"185":0.4357837438583374,"186":-0.16679935157299042,"187":1.5231488943099976,"188":0.8208904266357422,"189":0.4288054406642914,"190":0.8400382399559021,"191":0.09309309720993042,"192":-0.6447280645370483,"193":-0.9473528861999512,"194":0.6818796396255493,"195":-0.4247717261314392,"196":-0.8030864596366882,"197":-0.33210405707359314,"198":-0.27512726187705994,"199":0.9600872993469238,"200":-0.37435775995254517,"201":-0.2164473980665207,"202":-0.769487202167511,"203":0.16189609467983246,"204":-1.172170877456665,"205":0.5085225701332092,"206":0.989356279373169,"207":-1.446015477180481,"208":0.31941840052604675,"209":-1.529768943786621,"210":0.1847473382949829,"211":0.2703355550765991,"212":0.45880284905433655,"213":1.4928147792816162,"214":0.9380720257759094,"215":-1.3034659624099731,"216":1.8272182941436768,"217":0.7910894155502319,"218":0.06379520893096924,"219":-0.006322513334453106,"220":-0.28513798117637634,"221":0.6591923832893372,"222":2.79587984085083,"223":0.29783540964126587,"224":1.8988423347473145,"225":-0.30780357122421265,"226":-0.48687484860420227,"227":-0.44976484775543213,"228":0.6010931134223938,"229":-1.8741817474365234,"230":3.828742265701294,"231":-3.29526686668396,"232":2.2424728870391846,"233":4.28481912612915,"234":-0.14489945769309998,"235":-4.058813095092773,"236":1.6674787998199463,"237":2.7109062671661377,"238":3.6816153526306152,"239":1.8443832397460938,"240":0.8277241587638855,"241":-0.0873650312423706,"242":0.12146300822496414,"243":-0.24186600744724274,"244":0.9563313126564026,"245":-0.8152968883514404,"246":-0.382035493850708,"247":0.3196180760860443,"248":0.08450403809547424,"249":0.45574042201042175,"250":-0.8328425884246826,"251":0.05005146190524101,"252":-0.02383921481668949,"253":-0.6307931542396545,"254":0.20245486497879028,"255":-0.4058583676815033,"256":-0.16046005487442017,"257":-0.0490504615008831,"258":-0.5167651176452637,"259":0.4127673804759979,"260":0.530939519405365,"261":-0.31276971101760864,"262":-0.3151840269565582,"263":1.1596264839172363,"264":1.942820429801941,"265":-1.3578110933303833,"266":0.8526123762130737,"267":1.4127198457717896,"268":-1.6520916223526,"269":-0.7479909658432007,"270":0.47213315963745117,"271":1.1380468606948853,"272":-1.519870638847351,"273":-0.5818289518356323,"274":-1.0222259759902954,"275":0.08283330500125885,"276":-0.4510865807533264,"277":1.602649450302124,"278":-0.9941181540489197,"279":-0.4768293499946594,"280":-0.6943569779396057,"281":0.047850947827100754,"282":1.3570541143417358,"283":0.7565111517906189,"284":-0.5932812690734863,"285":-0.9950677156448364,"286":-1.252034068107605,"287":-0.7638172507286072,"288":1.973462700843811,"289":0.6443893313407898,"290":1.3026494979858398,"291":2.346336603164673,"292":2.0047149658203125,"293":3.8774571418762207,"294":-0.5396997928619385,"295":1.4068862199783325,"296":1.774585485458374,"297":4.761133193969727,"298":-0.9897658228874207,"299":1.1659417152404785,"300":-1.571796178817749,"301":0.43069928884506226,"302":0.6138984560966492,"303":-1.6492096185684204,"304":-0.2094186544418335,"305":-0.8645956516265869,"306":-0.1580752432346344,"307":-1.3255807161331177,"308":1.1870579719543457,"309":-1.4028432369232178,"310":0.4453202188014984,"311":-0.23976382613182068,"312":3.756767749786377,"313":2.5995423793792725,"314":-2.208188056945801,"315":-0.18873119354248047,"316":3.2823617458343506,"317":3.1490225791931152,"318":-1.7282589673995972,"319":-0.06433440744876862,"320":-0.9046562314033508,"321":0.2419254034757614,"322":3.128864288330078,"323":-3.429527759552002,"324":0.5693016648292542,"325":-0.32959383726119995,"326":-1.0775924921035767,"327":1.0969592332839966,"328":-0.6268057227134705,"329":-1.5195927619934082,"330":-2.408371686935425,"331":-3.3654370307922363,"332":0.21667788922786713,"333":-0.21282687783241272,"334":0.8968896269798279,"335":-1.1931324005126953,"336":0.679596483707428,"337":-0.39795663952827454,"338":-0.49301284551620483,"339":-0.7449653148651123,"340":-2.1361210346221924,"341":0.9418942928314209,"342":-0.5786629319190979,"343":-1.0614041090011597,"344":0.6921710968017578,"345":-2.508082151412964,"346":-0.6684736609458923,"347":1.6008875370025635,"348":2.502302646636963,"349":0.6807544231414795,"350":-0.8130906224250793,"351":-2.5025858879089355,"352":3.0157463550567627,"353":1.8105127811431885,"354":-0.03323455527424812,"355":1.9595470428466797,"356":2.0840048789978027,"357":1.4946705102920532,"358":-0.7824558615684509,"359":0.4638023376464844,"360":-1.16983163356781,"361":-0.2381332665681839,"362":0.8182677626609802,"363":-2.337111234664917,"364":-1.0240294933319092,"365":0.10024993121623993,"366":-0.27040186524391174,"367":-0.013324684463441372,"368":1.3900281190872192,"369":-0.1902988702058792,"370":0.5584930777549744,"371":-0.40340089797973633,"372":1.5678433179855347,"373":-0.003641613060608506,"374":1.0727958679199219,"375":0.3110780417919159,"376":0.2633908689022064,"377":2.500551223754883,"378":-0.02957129292190075,"379":1.0074937343597412,"380":-1.113207459449768,"381":-0.7979811429977417,"382":-0.2989545166492462,"383":-2.9476237297058105,"384":-0.34735381603240967,"385":0.5997193455696106,"386":2.4262375831604004,"387":-1.8505053520202637,"388":0.10376840829849243,"389":1.2646496295928955,"390":-0.24146878719329834,"391":-2.3173110485076904,"392":1.6628692150115967,"393":1.7921808958053589,"394":-0.05107884854078293,"395":-0.9777174592018127,"396":0.3990440368652344,"397":0.08498819172382355,"398":0.8052054047584534,"399":-1.7595107555389404}},"inputBias":{"rows":20,"columns":1,"weights":{"0":-0.32910871505737305,"1":-0.7575158476829529,"2":0.51042240858078,"3":-0.4637717604637146,"4":-1.5306906700134277,"5":0.07084237784147263,"6":1.9237353801727295,"7":-1.5651886463165283,"8":0.42177435755729675,"9":-0.5187863707542419,"10":-0.5041822791099548,"11":1.3047993183135986,"12":0.24691537022590637,"13":-0.3815455734729767,"14":-0.40847596526145935,"15":-0.9336441159248352,"16":-1.3078922033309937,"17":-1.4716368913650513,"18":-0.7673429250717163,"19":0.6203828454017639}},"forgetMatrix":{"rows":20,"columns":43,"weights":{"0":-0.2699253261089325,"1":-0.5784167051315308,"2":0.19200050830841064,"3":0.3873409926891327,"4":-0.24424058198928833,"5":0.43849125504493713,"6":1.3041493892669678,"7":-2.2695534229278564,"8":0.7848178744316101,"9":-1.1407514810562134,"10":-0.4439290761947632,"11":0.9548245668411255,"12":0.68370121717453,"13":0.7183724641799927,"14":0.25590255856513977,"15":0.4574176073074341,"16":0.2867397367954254,"17":-1.05509352684021,"18":0.6591903567314148,"19":0.3489702045917511,"20":-0.41973093152046204,"21":-0.12436538934707642,"22":0.5223742723464966,"23":-0.07449285686016083,"24":-0.10518930107355118,"25":-0.024531349539756775,"26":0.01854061149060726,"27":0.9833887815475464,"28":-0.03612668812274933,"29":-0.10273686051368713,"30":-0.49489325284957886,"31":0.03476610407233238,"32":0.6722315549850464,"33":-0.2720399796962738,"34":-0.9914815425872803,"35":0.4834343194961548,"36":-2.397454023361206,"37":-1.9139786958694458,"38":-0.16881881654262543,"39":0.18763016164302826,"40":-1.09602952003479,"41":-0.695743978023529,"42":0.814150869846344,"43":1.2163878679275513,"44":0.5319365859031677,"45":1.0665990114212036,"46":-0.3022598922252655,"47":-1.011797547340393,"48":-0.08286061137914658,"49":-1.1907551288604736,"50":0.6053168177604675,"51":-0.00034890283131971955,"52":-0.6130534410476685,"53":-0.41328492760658264,"54":-0.1824767142534256,"55":0.45499783754348755,"56":0.21191591024398804,"57":1.3719581365585327,"58":-0.4249937832355499,"59":1.549163579940796,"60":0.18849706649780273,"61":0.28889787197113037,"62":-0.5801241397857666,"63":1.2504544258117676,"64":1.069585919380188,"65":0.7971524000167847,"66":0.40489938855171204,"67":-0.07452736049890518,"68":-1.163345217704773,"69":0.42417746782302856,"70":0.08714684098958969,"71":-0.6868498921394348,"72":0.5304380655288696,"73":1.04010808467865,"74":-0.8507665395736694,"75":-0.3615191578865051,"76":1.610185980796814,"77":0.47588229179382324,"78":-0.034769363701343536,"79":1.396288275718689,"80":-0.8231350183486938,"81":-0.4630453884601593,"82":-0.45946305990219116,"83":-0.14476914703845978,"84":-0.8079878687858582,"85":0.059075355529785156,"86":-0.15071582794189453,"87":1.2240338325500488,"88":0.007761979941278696,"89":1.3905903100967407,"90":0.9294313788414001,"91":2.6279702186584473,"92":-1.0386792421340942,"93":1.1037492752075195,"94":0.5214795470237732,"95":0.8325711488723755,"96":-0.9251769185066223,"97":-0.21828676760196686,"98":1.2780910730361938,"99":0.8308275938034058,"100":0.142393559217453,"101":-1.279945969581604,"102":1.0528639554977417,"103":0.8431615233421326,"104":-2.3276402950286865,"105":0.01734028570353985,"106":0.5155907273292542,"107":1.624593734741211,"108":-1.6371498107910156,"109":-1.521575689315796,"110":1.6030898094177246,"111":0.2944399118423462,"112":-1.116546869277954,"113":-0.012080615386366844,"114":-0.07288584858179092,"115":-1.929489254951477,"116":-1.4128526449203491,"117":-0.5041839480400085,"118":-0.10311561077833176,"119":0.25204917788505554,"120":0.4268750846385956,"121":1.1753555536270142,"122":0.5402064323425293,"123":0.7589421272277832,"124":-0.3384285569190979,"125":1.0801365375518799,"126":1.7134344577789307,"127":-0.10214903950691223,"128":0.26770758628845215,"129":2.0873446464538574,"130":-0.18066686391830444,"131":0.007865182124078274,"132":-1.4290660619735718,"133":-3.4702084064483643,"134":-1.1792986392974854,"135":0.09401334077119827,"136":0.40600672364234924,"137":-1.7748537063598633,"138":-0.19752883911132812,"139":0.4928020238876343,"140":-0.2475196272134781,"141":-1.4108699560165405,"142":-1.1276142597198486,"143":0.43776944279670715,"144":0.03029622510075569,"145":-0.526650607585907,"146":-0.8603334426879883,"147":1.5889045000076294,"148":-1.4778693914413452,"149":1.9444955587387085,"150":1.0009818077087402,"151":0.3953613340854645,"152":-0.05206737667322159,"153":-0.5090481638908386,"154":-0.8103911280632019,"155":-0.3777060806751251,"156":-0.7249294519424438,"157":0.42841219902038574,"158":0.1747463196516037,"159":1.0632864236831665,"160":0.896581768989563,"161":-1.294390082359314,"162":0.5231236219406128,"163":1.1186895370483398,"164":-1.3424400091171265,"165":1.075863003730774,"166":-1.0019242763519287,"167":-1.0099105834960938,"168":-0.792686402797699,"169":-0.030514080077409744,"170":0.45854702591896057,"171":0.368414044380188,"172":0.5897386074066162,"173":0.008786885999143124,"174":-0.7454013228416443,"175":0.6927663683891296,"176":0.30820995569229126,"177":0.022920111194252968,"178":0.3024648129940033,"179":-1.7314929962158203,"180":0.3532932698726654,"181":-1.7973768711090088,"182":-0.5006699562072754,"183":0.6662595868110657,"184":0.19736813008785248,"185":0.8378848433494568,"186":-0.6771193742752075,"187":2.4479196071624756,"188":-1.7864073514938354,"189":-0.600746750831604,"190":1.353729486465454,"191":1.0211371183395386,"192":0.14908453822135925,"193":-0.761246919631958,"194":0.15153685212135315,"195":-1.4382401704788208,"196":-0.670630693435669,"197":0.09116458892822266,"198":0.13084818422794342,"199":0.25070929527282715,"200":1.1362212896347046,"201":-0.6338025331497192,"202":-1.1658304929733276,"203":0.11519092321395874,"204":1.327453851699829,"205":0.007383172400295734,"206":-0.8883095979690552,"207":-0.8012442588806152,"208":-0.500778079032898,"209":-1.3151124715805054,"210":-0.6463253498077393,"211":0.7085934281349182,"212":-1.963181734085083,"213":-0.5157728791236877,"214":0.33512622117996216,"215":-0.744795560836792,"216":-0.04275356978178024,"217":-0.10029303282499313,"218":1.5121946334838867,"219":1.2994632720947266,"220":-0.00339492061175406,"221":1.1573821306228638,"222":0.587497889995575,"223":-0.05133238434791565,"224":-0.2489684671163559,"225":-0.5186139941215515,"226":-0.17437265813350677,"227":-0.8343183398246765,"228":0.23523400723934174,"229":-0.5474750399589539,"230":0.5204182267189026,"231":-1.450368046760559,"232":-1.3068101406097412,"233":-2.2048137187957764,"234":0.9855167865753174,"235":-1.2312558889389038,"236":-0.32060500979423523,"237":-1.167741060256958,"238":-2.021267890930176,"239":0.22998054325580597,"240":-0.13762274384498596,"241":-2.474604606628418,"242":-0.25854068994522095,"243":-0.6715925931930542,"244":-1.4085638523101807,"245":-1.412458062171936,"246":-0.15810324251651764,"247":1.0133775472640991,"248":-1.270277500152588,"249":0.2190861701965332,"250":0.06784497946500778,"251":0.040752068161964417,"252":2.5555827617645264,"253":-1.228506088256836,"254":0.7437222599983215,"255":-0.10869476944208145,"256":1.7224435806274414,"257":0.061454933136701584,"258":-1.9976301193237305,"259":1.2529057264328003,"260":-0.9007482528686523,"261":-0.210171639919281,"262":-0.509729266166687,"263":0.7157214879989624,"264":3.4443089962005615,"265":-1.3776006698608398,"266":-1.0128978490829468,"267":0.3780270516872406,"268":-0.44543707370758057,"269":0.210038959980011,"270":0.3910750150680542,"271":-0.08006703108549118,"272":-0.6416943669319153,"273":0.29600781202316284,"274":0.5699462294578552,"275":-3.264195442199707,"276":0.1397341638803482,"277":0.787099301815033,"278":-1.2327028512954712,"279":1.2106668949127197,"280":0.5670104622840881,"281":-0.3882649838924408,"282":0.04165076091885567,"283":0.6976091861724854,"284":-1.8374707698822021,"285":-1.7122560739517212,"286":-0.2498609870672226,"287":-0.1050386130809784,"288":-1.1245179176330566,"289":1.670272707939148,"290":-0.5738304853439331,"291":-0.09856870770454407,"292":-0.6272549629211426,"293":0.015639811754226685,"294":-1.3987144231796265,"295":0.5006083250045776,"296":0.14587949216365814,"297":0.6128422617912292,"298":-1.0737613439559937,"299":0.9085147976875305,"300":-1.1234780550003052,"301":-0.6625615358352661,"302":-0.8794190883636475,"303":1.2713197469711304,"304":-0.4042792320251465,"305":-0.5443307757377625,"306":0.21204468607902527,"307":0.8680132627487183,"308":-0.5140112042427063,"309":1.817934513092041,"310":-0.06936491280794144,"311":-0.7004334330558777,"312":0.7312606573104858,"313":1.6630529165267944,"314":-0.5320030450820923,"315":0.423833429813385,"316":0.19744426012039185,"317":-0.14495980739593506,"318":-0.029225638136267662,"319":-2.9960134029388428,"320":0.45098060369491577,"321":-1.297736406326294,"322":-0.1709761768579483,"323":-0.8726437091827393,"324":-0.6551011800765991,"325":-0.23451420664787292,"326":-0.2712140381336212,"327":-2.16284441947937,"328":1.3886058330535889,"329":-1.1702592372894287,"330":-0.5049124956130981,"331":-0.056815214455127716,"332":-0.40454402565956116,"333":-0.11652371287345886,"334":0.8989114165306091,"335":-0.03191773593425751,"336":1.9045424461364746,"337":-0.2287232130765915,"338":0.8589844703674316,"339":-0.4403957724571228,"340":0.025899644941091537,"341":1.0918134450912476,"342":0.06863786280155182,"343":1.7969354391098022,"344":0.20746678113937378,"345":0.032915204763412476,"346":0.9232787489891052,"347":0.34575921297073364,"348":0.9840375781059265,"349":0.2564447820186615,"350":0.35829195380210876,"351":1.4012218713760376,"352":-0.2925041913986206,"353":2.5298590660095215,"354":0.7955871224403381,"355":-1.3049516677856445,"356":-0.8905593752861023,"357":-0.8727637529373169,"358":-0.9244037866592407,"359":-1.8741527795791626,"360":-0.04305826127529144,"361":0.8734878897666931,"362":0.358629047870636,"363":-1.4661608934402466,"364":0.25748732686042786,"365":-0.2295626550912857,"366":-0.44497811794281006,"367":0.24661444127559662,"368":-0.6155736446380615,"369":1.4406462907791138,"370":0.3021216094493866,"371":-1.6779279708862305,"372":-1.632620930671692,"373":0.1958673894405365,"374":-0.6609107851982117,"375":-1.2349570989608765,"376":0.8276492953300476,"377":-0.05206260085105896,"378":0.9710783958435059,"379":0.077227383852005,"380":0.1425546258687973,"381":0.14074286818504333,"382":0.8471434712409973,"383":-0.42751553654670715,"384":1.1650222539901733,"385":-0.5716474056243896,"386":-2.201765775680542,"387":-1.7283738851547241,"388":-0.7010215520858765,"389":0.28327685594558716,"390":-1.0775717496871948,"391":0.545437753200531,"392":-0.5672926902770996,"393":0.6700261235237122,"394":-2.1318578720092773,"395":-0.7197866439819336,"396":-2.3402163982391357,"397":-1.2582440376281738,"398":0.7925886511802673,"399":0.02689262479543686,"400":0.9039742350578308,"401":0.4893820583820343,"402":0.3307033181190491,"403":0.6541078686714172,"404":-0.06708970665931702,"405":0.998797595500946,"406":1.3659156560897827,"407":-0.9455920457839966,"408":0.46770909428596497,"409":1.1212677955627441,"410":1.9256781339645386,"411":-0.4390563368797302,"412":-1.233443021774292,"413":1.5291210412979126,"414":0.6495027542114258,"415":-0.06551006436347961,"416":1.4804681539535522,"417":0.35370177030563354,"418":1.947988510131836,"419":0.013697878457605839,"420":0.49286070466041565,"421":-0.7091091871261597,"422":-0.645774781703949,"423":-2.0174267292022705,"424":0.22958120703697205,"425":0.9836779832839966,"426":-1.4323041439056396,"427":-0.4782102704048157,"428":1.1782273054122925,"429":0.7586925625801086,"430":-1.1331309080123901,"431":1.2909098863601685,"432":0.057851921766996384,"433":0.07835099846124649,"434":-0.8193346261978149,"435":-0.6184370517730713,"436":1.2336831092834473,"437":-2.1454403400421143,"438":0.07070845365524292,"439":-2.174440622329712,"440":-1.4435354471206665,"441":0.9670120477676392,"442":1.8038307428359985,"443":1.9102669954299927,"444":1.468981385231018,"445":1.62737238407135,"446":1.7929320335388184,"447":-1.1489155292510986,"448":-0.9708457589149475,"449":1.926072597503662,"450":-0.44009310007095337,"451":0.6005218625068665,"452":0.4670596122741699,"453":0.3820239007472992,"454":-0.002818257315084338,"455":-1.189302921295166,"456":-0.09828415513038635,"457":0.899084210395813,"458":0.4105110764503479,"459":0.08083761483430862,"460":-0.11205451935529709,"461":1.37161386013031,"462":-0.1197662204504013,"463":0.957680344581604,"464":-0.9689977765083313,"465":0.7266818284988403,"466":-1.2618458271026611,"467":-0.5595835447311401,"468":1.2584705352783203,"469":-1.1235657930374146,"470":-1.2008824348449707,"471":0.8303782343864441,"472":-0.3355563282966614,"473":0.5307560563087463,"474":1.4365812540054321,"475":0.1537262350320816,"476":1.9907501935958862,"477":1.2746047973632812,"478":1.1496407985687256,"479":-0.8719701170921326,"480":1.2130775451660156,"481":-0.11520325392484665,"482":0.5287039279937744,"483":-1.1044875383377075,"484":0.23421819508075714,"485":-0.7484648823738098,"486":-0.07981370389461517,"487":0.08970753848552704,"488":-0.15921862423419952,"489":-1.2333002090454102,"490":0.3393456041812897,"491":-1.5741996765136719,"492":-0.32121479511260986,"493":0.8137039542198181,"494":0.7144467830657959,"495":-0.9885905981063843,"496":-0.9924808740615845,"497":1.2812535762786865,"498":1.106080412864685,"499":-0.2793997526168823,"500":-0.06397435814142227,"501":1.0475866794586182,"502":-1.238896131515503,"503":-1.4568690061569214,"504":-1.3012995719909668,"505":1.5028904676437378,"506":-0.5622484683990479,"507":0.5808421969413757,"508":-0.32453453540802,"509":1.4121663570404053,"510":1.050819993019104,"511":-1.3148727416992188,"512":1.4735877513885498,"513":0.5065785050392151,"514":-0.3178788721561432,"515":0.20714817941188812,"516":0.5508469939231873,"517":-0.7070454359054565,"518":-0.7941632866859436,"519":1.0296220779418945,"520":-0.25619471073150635,"521":-0.36503496766090393,"522":-0.9627932906150818,"523":-0.34262317419052124,"524":-0.403571218252182,"525":-0.3827488124370575,"526":-0.09328137338161469,"527":0.017097238451242447,"528":0.14870545268058777,"529":0.6469694375991821,"530":0.9455878138542175,"531":-0.46229633688926697,"532":-0.97445148229599,"533":0.995223879814148,"534":-0.344648152589798,"535":-0.23664185404777527,"536":1.4094277620315552,"537":1.5453221797943115,"538":0.34686043858528137,"539":-0.9864829778671265,"540":2.015846014022827,"541":1.4985477924346924,"542":-0.027429156005382538,"543":0.7730956673622131,"544":2.0408859252929688,"545":1.2103278636932373,"546":-0.5606197714805603,"547":2.5964157581329346,"548":1.2173057794570923,"549":-0.3303983807563782,"550":0.40194493532180786,"551":0.0012323040282353759,"552":0.20154528319835663,"553":-1.0182908773422241,"554":0.09692539274692535,"555":-0.35863009095191956,"556":-0.3261382579803467,"557":-1.5258830785751343,"558":0.139817014336586,"559":1.347568154335022,"560":-1.1720372438430786,"561":-0.0695342868566513,"562":-2.3463146686553955,"563":-2.3049845695495605,"564":-1.6366782188415527,"565":-0.5461540222167969,"566":1.5184412002563477,"567":-1.0121814012527466,"568":0.7999200224876404,"569":1.2516980171203613,"570":-0.472609281539917,"571":-0.9538887143135071,"572":-2.235438108444214,"573":0.6218070387840271,"574":0.10536506772041321,"575":-0.8831393122673035,"576":-0.10717694461345673,"577":0.8207428455352783,"578":-0.9121367931365967,"579":0.34049785137176514,"580":0.23010186851024628,"581":0.3756358325481415,"582":0.8925744891166687,"583":-0.16531775891780853,"584":0.24459581077098846,"585":0.6844350695610046,"586":0.9860113263130188,"587":-0.28473928570747375,"588":0.6181581020355225,"589":1.7280513048171997,"590":-0.5521219968795776,"591":-1.6080020666122437,"592":0.12649205327033997,"593":1.376661777496338,"594":-0.16670523583889008,"595":2.067669630050659,"596":0.16520507633686066,"597":-0.21018379926681519,"598":0.0024192598648369312,"599":0.6042913794517517,"600":0.028067849576473236,"601":1.6460814476013184,"602":0.5281602740287781,"603":0.8089649081230164,"604":0.3476247489452362,"605":2.4079315662384033,"606":0.5281582474708557,"607":0.7191810011863708,"608":-0.13579143583774567,"609":-0.16011522710323334,"610":1.5171997547149658,"611":0.16696695983409882,"612":-1.0844039916992188,"613":0.4728127419948578,"614":0.26954907178878784,"615":0.5857637524604797,"616":0.2830432057380676,"617":0.8897739052772522,"618":-0.016150837764143944,"619":-0.9922428131103516,"620":-1.4426618814468384,"621":0.003077809466049075,"622":1.2403019666671753,"623":0.3225061893463135,"624":0.22551818192005157,"625":-2.4299476146698,"626":-0.7580503225326538,"627":-0.25143447518348694,"628":-1.483602523803711,"629":0.3334665596485138,"630":0.1410393863916397,"631":-0.49600455164909363,"632":-2.4171254634857178,"633":-1.3832237720489502,"634":1.6226519346237183,"635":0.7096437215805054,"636":-0.680371880531311,"637":0.045270174741744995,